{"learner":{"attributes":{"best_iteration":"106","best_score":"0.9638853890773464"},"feature_names":[],"feature_types":[],"gradient_booster":{"model":{"cats":{"enc":[],"feature_segments":[],"sorted_idx":[]},"gbtree_model_param":{"num_parallel_tree":"1","num_trees":"127"},"iteration_indptr":[0,1,2,3,4,5,6,7,8,9,10,11,12,13,14,15,16,17,18,19,20,21,22,23,24,25,26,27,28,29,30,31,32,33,34,35,36,37,38,39,40,41,42,43,44,45,46,47,48,49,50,51,52,53,54,55,56,57,58,59,60,61,62,63,64,65,66,67,68,69,70,71,72,73,74,75,76,77,78,79,80,81,82,83,84,85,86,87,88,89,90,91,92,93,94,95,96,97,98,99,100,101,102,103,104,105,106,107,108,109,110,111,112,113,114,115,116,117,118,119,120,121,122,123,124,125,126,127],"tree_info":[0,0,0,0,0,0,0,0,0,0,0,0,0,0,0,0,0,0,0,0,0,0,0,0,0,0,0,0,0,0,0,0,0,0,0,0,0,0,0,0,0,0,0,0,0,0,0,0,0,0,0,0,0,0,0,0,0,0,0,0,0,0,0,0,0,0,0,0,0,0,0,0,0,0,0,0,0,0,0,0,0,0,0,0,0,0,0,0,0,0,0,0,0,0,0,0,0,0,0,0,0,0,0,0,0,0,0,0,0,0,0,0,0,0,0,0,0,0,0,0,0,0,0,0,0,0,0],"trees":[{"base_weights":[-7.313858E-3,1.0547365E0,-4.026819E0,1.0768977E0,-7.122755E0,-3.4468646E0,-5.985298E0,1.1181897E-1,4.2127725E-1,-2.3725449E-1,-7.4554807E-1,-2.7008865E0,-5.0022125E0,-6.624315E0,-5.5118237E0,5.692864E-1,-1.0787637E0,-4.303857E0,-2.372567E0,-5.5889544E0,-4.1649165E0,-6.746635E-1,-3.6218784E0,-3.7331626E0,-5.8394933E0,-1.3362826E-1,6.286674E-2,-6.356425E-2,-3.274444E-1,-5.440969E-1,-3.8486096E-1,-2.6265517E-1,-1.5462759E-1,-4.8342934E-1,-6.0373825E-1,-3.0717728E-1,-4.6394506E-1,-5.153661E-1,-1.6304144E-1,-8.8314265E-2,-3.970802E-1,-6.5050143E-1,-5.398646E-1],"categories":[],"categories_nodes":[],"categories_segments":[],"categories_sizes":[],"default_left":[0,0,0,0,0,0,0,0,0,0,0,0,0,0,0,0,0,0,0,0,0,0,0,0,0,0,0,0,0,0,0,0,0,0,0,0,0,0,0,0,0,0,0],"id":0,"left_children":[1,3,5,7,9,11,13,-1,15,-1,-1,17,19,21,23,25,27,29,31,33,35,-1,37,39,41,-1,-1,-1,-1,-1,-1,-1,-1,-1,-1,-1,-1,-1,-1,-1,-1,-1,-1],"loss_changes":[2.59348E4,8.785449E2,1.4215723E3,1.292959E2,3.046753E0,1.1258594E3,5.084668E1,0E0,6.4025986E1,0E0,0E0,3.4021973E2,1.3252686E2,1.8875977E1,7.833154E1,3.0330093E1,2.3211496E1,3.7021484E1,1.1239087E2,3.2928223E1,5.5568115E1,0E0,1.2266266E1,1.6472351E1,6.926758E0,0E0,0E0,0E0,0E0,0E0,0E0,0E0,0E0,0E0,0E0,0E0,0E0,0E0,0E0,0E0,0E0,0E0,0E0],"parents":[2147483647,0,0,1,1,2,2,3,3,4,4,5,5,6,6,8,8,11,11,12,12,13,13,14,14,15,15,16,16,17,17,18,18,19,19,20,20,22,22,23,23,24,24],"right_children":[2,4,6,8,10,12,14,-1,16,-1,-1,18,20,22,24,26,28,30,32,34,36,-1,38,40,42,-1,-1,-1,-1,-1,-1,-1,-1,-1,-1,-1,-1,-1,-1,-1,-1,-1,-1],"split_conditions":[1E0,1E0,1.677691E0,1E0,-4.851201E-1,5.485576E-1,-2.0586216E-1,1.1181897E-1,0E0,-2.3725449E-1,-7.4554807E-1,-6.8137246E-1,5.0706226E-1,1.9563675E0,-4.5717906E-2,-8.36486E-1,1E0,-8.5019606E-1,8.27235E-1,8.179624E-1,9.6851224E-1,-6.746635E-1,-5.935657E-1,-5.5960166E-1,-1.2716817E-2,-1.3362826E-1,6.286674E-2,-6.356425E-2,-3.274444E-1,-5.440969E-1,-3.8486096E-1,-2.6265517E-1,-1.5462759E-1,-4.8342934E-1,-6.0373825E-1,-3.0717728E-1,-4.6394506E-1,-5.153661E-1,-1.6304144E-1,-8.8314265E-2,-3.970802E-1,-6.5050143E-1,-5.398646E-1],"split_indices":[71,70,10,9,85,94,12,0,10,0,0,12,12,84,94,12,76,12,8,94,94,0,12,82,82,0,0,0,0,0,0,0,0,0,0,0,0,0,0,0,0,0,0],"split_type":[0,0,0,0,0,0,0,0,0,0,0,0,0,0,0,0,0,0,0,0,0,0,0,0,0,0,0,0,0,0,0,0,0,0,0,0,0,0,0,0,0,0,0],"sum_hessian":[6.0732695E3,4.804533E3,1.2687361E3,4.792414E3,1.211927E1,9.809981E2,2.8773798E2,4.5078003E3,2.846135E2,1.3255452E0,1.0793725E1,6.648556E2,3.1614252E2,1.1693202E2,1.7080597E2,2.596175E2,2.4995995E1,1.1096707E2,5.5388855E2,1.8254651E2,1.3359602E2,1.1115643E2,5.77559E0,2.8499222E1,1.4230675E2,7.195817E0,2.5242168E2,2.1871496E1,3.1244993E0,2.8593903E1,8.237317E1,4.2199677E2,1.3189175E2,7.243158E1,1.1011493E2,4.2701492E1,9.089453E1,2.367045E0,3.4085448E0,2.5564086E0,2.5942814E1,5.1222855E1,9.108389E1],"tree_param":{"num_deleted":"0","num_feature":"95","num_nodes":"43","size_leaf_vector":"1"}},{"base_weights":[1.7596794E-2,1.0330937E0,-2.6384869E0,1.0608947E0,-4.120264E-1,-2.0154095E0,-2.9792852E0,1.1056395E-1,3.8557732E-1,-2.7910829E0,-1.6007525E0,-2.8624825E0,-3.6702855E0,-2.0000317E0,4.8513818E-1,-2.8760386E0,-1.7906746E-1,-1.8281807E0,-1.1219747E0,-2.6849735E0,-3.2753305E0,-3.7182918E0,-3.6974344E-1,5.690223E-2,-2.9414392E-1,1.2721402E-2,6.398337E-2,-2.6542073E-1,-3.688976E-1,8.0755346E-2,-7.6513186E-2,-1.7155313E-1,-2.723547E-1,-2.0890887E-1,-8.332382E-2,-2.5436696E-1,-3.5205394E-1,-3.2893634E-1,1.4574252E-2,-3.7350878E-1,-7.756021E-2,-8.232915E-2,2.1665178E-2],"categories":[],"categories_nodes":[],"categories_segments":[],"categories_sizes":[],"default_left":[0,0,0,0,0,0,0,0,0,0,0,0,0,0,0,0,0,0,0,0,0,0,0,0,0,0,0,0,0,0,0,0,0,0,0,0,0,0,0,0,0,0,0],"id":1,"left_children":[1,3,5,7,-1,9,11,-1,13,15,17,19,21,23,25,27,29,31,33,35,37,39,41,-1,-1,-1,-1,-1,-1,-1,-1,-1,-1,-1,-1,-1,-1,-1,-1,-1,-1,-1,-1],"loss_changes":[1.6476543E4,6.374907E2,3.5276074E2,1.3241211E2,0E0,1.8866553E2,7.7475586E1,0E0,6.621857E1,4.560376E1,4.0810913E1,5.9873535E1,2.3037842E1,2.8763195E1,1.456451E1,2.649524E1,5.0199904E0,2.2084473E1,3.438092E1,6.9066895E1,1.3787109E1,4.60376E0,1.0611657E0,0E0,0E0,0E0,0E0,0E0,0E0,0E0,0E0,0E0,0E0,0E0,0E0,0E0,0E0,0E0,0E0,0E0,0E0,0E0,0E0],"parents":[2147483647,0,0,1,1,2,2,3,3,5,5,6,6,8,8,9,9,10,10,11,11,12,12,13,13,14,14,15,15,16,16,17,17,18,18,19,19,20,20,21,21,22,22],"right_children":[2,4,6,8,-1,10,12,-1,14,16,18,20,22,24,26,28,30,32,34,36,38,40,42,-1,-1,-1,-1,-1,-1,-1,-1,-1,-1,-1,-1,-1,-1,-1,-1,-1,-1,-1,-1],"split_conditions":[1E0,1E0,0E0,1E0,-4.120264E-1,1.9539963E-1,1.2933828E0,1.1056395E-1,1E0,1E0,5.733402E-1,1E0,1E0,-5.76604E-1,1.8116339E-1,1E0,-8.380852E-1,1E0,-5.6299907E-1,1E0,3.0089245E0,1E0,1E0,5.690223E-2,-2.9414392E-1,1.2721402E-2,6.398337E-2,-2.6542073E-1,-3.688976E-1,8.0755346E-2,-7.6513186E-2,-1.7155313E-1,-2.723547E-1,-2.0890887E-1,-8.332382E-2,-2.5436696E-1,-3.5205394E-1,-3.2893634E-1,1.4574252E-2,-3.7350878E-1,-7.756021E-2,-8.232915E-2,2.1665178E-2],"split_indices":[71,70,94,9,0,8,94,0,74,56,8,66,56,94,8,58,94,66,11,31,84,59,79,0,0,0,0,0,0,0,0,0,0,0,0,0,0,0,0,0,0,0,0],"split_type":[0,0,0,0,0,0,0,0,0,0,0,0,0,0,0,0,0,0,0,0,0,0,0,0,0,0,0,0,0,0,0,0,0,0,0,0,0,0,0,0,0,0,0],"sum_hessian":[6.1066465E3,4.4180938E3,1.6885527E3,4.395177E3,2.291677E1,5.9946747E2,1.0890853E3,4.121463E3,2.7371423E2,2.0683078E2,3.9263666E2,9.3601013E2,1.5307516E2,1.0200811E1,2.635134E2,2.0021764E2,6.6131577E0,2.642803E2,1.2835637E2,6.5981714E2,2.76193E2,1.5075586E2,2.319309E0,2.8416507E0,7.359161E0,8.007157E1,1.8344185E2,1.6064609E2,3.9571545E1,2.3235717E0,4.289586E0,2.3733615E2,2.6944138E1,2.8077244E1,1.0027912E2,5.67834E2,9.198315E1,2.7510303E2,1.0899541E0,1.4963252E2,1.1233265E0,1.079997E0,1.2393119E0],"tree_param":{"num_deleted":"0","num_feature":"95","num_nodes":"43","size_leaf_vector":"1"}},{"base_weights":[2.787974E-2,1.0201775E0,-1.9701391E0,1.0456139E0,-2.6973352E0,-1.7688957E0,-2.5443761E0,1.0945318E-1,3.6436656E-1,-1.204259E0,-2.8576043E0,-1.4929562E0,-2.2153945E0,-2.4175627E0,-3.225586E0,5.320626E-1,-1.0290327E0,1.0609801E-2,-2.0522602E-1,-2.9296315E-1,-9.271868E-2,-1.8663058E0,-1.2148312E0,-2.302149E0,-1.2082274E0,-3.20318E0,-2.334767E0,-3.2864163E0,-1.1558546E0,6.49676E-2,4.8486027E-4,-2.4468613E-1,-5.945859E-2,-1.9947453E-1,-1.0833337E-1,-1.3618447E-1,-5.6736935E-2,-2.6454404E-1,-2.1043591E-1,7.669467E-3,-1.3710602E-1,-3.2543138E-1,-7.385964E-2,-1.771137E-1,-2.452571E-1,-3.3333135E-1,-1.08561434E-1,-1.7027023E-1,1.5817525E-2],"categories":[],"categories_nodes":[],"categories_segments":[],"categories_sizes":[],"default_left":[0,0,0,0,0,0,0,0,0,0,0,0,0,0,0,0,0,0,0,0,0,0,0,0,0,0,0,0,0,0,0,0,0,0,0,0,0,0,0,0,0,0,0,0,0,0,0,0,0],"id":2,"left_children":[1,3,5,7,9,11,13,-1,15,17,19,21,23,25,27,29,31,-1,-1,-1,-1,33,35,37,39,41,43,45,47,-1,-1,-1,-1,-1,-1,-1,-1,-1,-1,-1,-1,-1,-1,-1,-1,-1,-1,-1,-1],"loss_changes":[1.2065038E4,3.8730176E2,2.2885889E2,1.3420459E2,3.237671E0,1.8132959E2,3.727466E1,0E0,6.412854E1,5.1447062E0,6.8704224E-1,9.4225586E1,4.7052002E1,2.1393066E1,6.1343384E0,1.5097519E1,1.675965E1,0E0,0E0,0E0,0E0,3.754724E1,5.0190857E1,3.0012207E1,1.000898E1,2.5906982E0,2.2562744E1,4.2356567E0,2.9963517E0,0E0,0E0,0E0,0E0,0E0,0E0,0E0,0E0,0E0,0E0,0E0,0E0,0E0,0E0,0E0,0E0,0E0,0E0,0E0,0E0],"parents":[2147483647,0,0,1,1,2,2,3,3,4,4,5,5,6,6,8,8,9,9,10,10,11,11,12,12,13,13,14,14,15,15,16,16,21,21,22,22,23,23,24,24,25,25,26,26,27,27,28,28],"right_children":[2,4,6,8,10,12,14,-1,16,18,20,22,24,26,28,30,32,-1,-1,-1,-1,34,36,38,40,42,44,46,48,-1,-1,-1,-1,-1,-1,-1,-1,-1,-1,-1,-1,-1,-1,-1,-1,-1,-1,-1,-1],"split_conditions":[1E0,1E0,1.677691E0,1E0,-7.6677215E-1,5.0101554E-1,5.370094E0,1.0945318E-1,1.677691E0,7.406873E-1,1E0,-4.0334958E-1,3.0331924E0,-7.551381E-1,2.8254E0,7.2287834E-1,1E0,1.0609801E-2,-2.0522602E-1,-2.9296315E-1,-9.271868E-2,1E0,1E0,-4.4223902E-1,-2.3948523E-1,1.1529522E0,-3.5474116E-1,1E0,0E0,6.49676E-2,4.8486027E-4,-2.4468613E-1,-5.945859E-2,-1.9947453E-1,-1.0833337E-1,-1.3618447E-1,-5.6736935E-2,-2.6454404E-1,-2.1043591E-1,7.669467E-3,-1.3710602E-1,-3.2543138E-1,-7.385964E-2,-1.771137E-1,-2.452571E-1,-3.3333135E-1,-1.08561434E-1,-1.7027023E-1,1.5817525E-2],"split_indices":[71,70,10,9,94,94,10,0,10,90,41,12,11,12,11,94,74,0,0,0,0,54,64,8,80,80,94,54,91,0,0,0,0,0,0,0,0,0,0,0,0,0,0,0,0,0,0,0,0],"split_type":[0,0,0,0,0,0,0,0,0,0,0,0,0,0,0,0,0,0,0,0,0,0,0,0,0,0,0,0,0,0,0,0,0,0,0,0,0,0,0,0,0,0,0,0,0,0,0,0,0],"sum_hessian":[6.083358E3,4.0650015E3,2.0183563E3,4.0380903E3,2.6911121E1,1.4975981E3,5.207582E2,3.76699E3,2.7110043E2,3.4339776E0,2.3477144E1,9.2826624E2,5.6933185E2,4.4286398E2,7.789418E1,2.4253003E2,2.8570406E1,1.6929165E0,1.7410612E0,2.2133684E1,1.3434598E0,3.9385385E2,5.344124E2,5.2299664E2,4.6335217E1,3.863005E1,4.0423392E2,7.509913E1,2.7950506E0,1.981038E2,4.4426235E1,5.6146665E0,2.295574E1,3.3702103E2,5.6832832E1,4.3462308E2,9.978932E1,1.8665552E2,3.3634113E2,5.2709394E0,4.1064278E1,3.753095E1,1.0991015E0,7.2654465E1,3.3157947E2,7.3028366E1,2.0707614E0,1.7648165E0,1.0302341E0],"tree_param":{"num_deleted":"0","num_feature":"95","num_nodes":"49","size_leaf_vector":"1"}},{"base_weights":[3.8589954E-2,1.0054476E0,-1.5763916E0,1.0336041E0,-2.3276687E0,-1.4239908E0,-2.0044703E0,4.2900857E-1,1.0720505E0,-2.4232395E-1,-3.0832333E-2,-8.784747E-1,-1.5571133E0,-1.8345836E0,-2.3089736E0,-1.8423278E0,4.9416637E-1,1.0802482E0,-5.452405E-1,-1.0356897E0,-1.378918E-1,-1.7130785E0,-1.2759264E0,-1.8970941E0,-9.685146E-1,-1.3541119E-2,-2.3212094E0,-2.2710769E-1,1.1475455E-2,6.233756E-2,-7.259761E-3,1.08081E-1,2.572889E-2,1.9355383E-3,-1.360086E-1,-1.1558586E-1,-4.4620965E-2,-6.614911E-3,-1.7581448E-1,-2.7967378E-1,-1.6668735E-1,-1.4078516E-1,-7.162066E-2,-1.8380381E-1,-2.3824154E-1,-1.4236909E-1,-1.1926984E-2,-2.5368705E-1,-2.0981796E-1],"categories":[],"categories_nodes":[],"categories_segments":[],"categories_sizes":[],"default_left":[0,0,0,0,0,0,0,0,0,0,0,0,0,0,0,0,0,0,0,0,0,0,0,0,0,0,0,0,0,0,0,0,0,0,0,0,0,0,0,0,0,0,0,0,0,0,0,0,0],"id":3,"left_children":[1,3,5,7,9,11,13,15,17,-1,-1,19,21,23,25,27,29,31,33,35,37,39,41,43,45,-1,47,-1,-1,-1,-1,-1,-1,-1,-1,-1,-1,-1,-1,-1,-1,-1,-1,-1,-1,-1,-1,-1,-1],"loss_changes":[9.354281E3,3.5408496E2,1.4350781E2,8.592969E1,5.370178E0,1.1902954E2,2.6106445E1,3.404278E1,4.6909668E1,0E0,0E0,3.7989334E1,5.620288E1,1.8809082E1,5.1691895E0,5.6767254E0,1.6040382E1,1.3288574E0,8.43825E0,1.8610657E1,6.6843266E0,3.807129E1,3.4356018E1,5.7855225E0,1.054388E1,0E0,4.5360107E0,0E0,0E0,0E0,0E0,0E0,0E0,0E0,0E0,0E0,0E0,0E0,0E0,0E0,0E0,0E0,0E0,0E0,0E0,0E0,0E0,0E0,0E0],"parents":[2147483647,0,0,1,1,2,2,3,3,4,4,5,5,6,6,7,7,8,8,11,11,12,12,13,13,14,14,15,15,16,16,17,17,18,18,19,19,20,20,21,21,22,22,23,23,24,24,26,26],"right_children":[2,4,6,8,10,12,14,16,18,-1,-1,20,22,24,26,28,30,32,34,36,38,40,42,44,46,-1,48,-1,-1,-1,-1,-1,-1,-1,-1,-1,-1,-1,-1,-1,-1,-1,-1,-1,-1,-1,-1,-1,-1],"split_conditions":[1E0,1E0,1.677691E0,-2.7563712E-2,1.1908715E0,-7.6677215E-1,3.5238924E0,-8.1923556E-1,1.677691E0,-2.4232395E-1,-3.0832333E-2,8.27235E-1,-9.685295E-2,1.165189E0,-1.0117808E-1,7.8657645E-1,8.179624E-1,2.6653332E-1,1E0,-2.3948523E-1,3.5856113E0,-8.2668734E-1,3.656087E-1,1.2220697E0,-1.5887429E-1,-1.3541119E-2,4.621485E-2,-2.2710769E-1,1.1475455E-2,6.233756E-2,-7.259761E-3,1.08081E-1,2.572889E-2,1.9355383E-3,-1.360086E-1,-1.1558586E-1,-4.4620965E-2,-6.614911E-3,-1.7581448E-1,-2.7967378E-1,-1.6668735E-1,-1.4078516E-1,-7.162066E-2,-1.8380381E-1,-2.3824154E-1,-1.4236909E-1,-1.1926984E-2,-2.5368705E-1,-2.0981796E-1],"split_indices":[71,70,10,83,84,94,10,12,10,0,0,8,82,82,5,82,94,90,68,80,90,12,12,94,8,0,12,0,0,0,0,0,0,0,0,0,0,0,0,0,0,0,0,0,0,0,0,0,0],"split_type":[0,0,0,0,0,0,0,0,0,0,0,0,0,0,0,0,0,0,0,0,0,0,0,0,0,0,0,0,0,0,0,0,0,0,0,0,0,0,0,0,0,0,0,0,0,0,0,0,0],"sum_hessian":[5.9887236E3,3.7462783E3,2.2424456E3,3.7155806E3,3.0697556E1,1.6568977E3,5.8554767E2,2.2287448E2,3.492706E3,2.9119394E1,1.5781622E0,3.2650952E2,1.3303882E3,3.803628E2,2.051849E2,5.4546847E0,2.1741978E2,3.4754216E3,1.7284468E1,2.6900513E2,5.7504395E1,8.524628E2,4.7792535E2,3.5364703E2,2.6715733E1,1.2161398E0,2.0396877E2,4.3428354E0,1.1118493E0,1.769739E2,4.0445877E1,3.4727383E3,2.6835093E0,1.078673E1,6.4977384E0,2.2265485E2,4.635029E1,5.606283E1,1.4415627E0,3.242649E1,8.200364E2,3.8553903E2,9.238633E1,3.1955005E2,3.4097004E1,1.6952923E1,9.762809E0,9.842299E1,1.0554578E2],"tree_param":{"num_deleted":"0","num_feature":"95","num_nodes":"49","size_leaf_vector":"1"}},{"base_weights":[3.335672E-2,1.0759608E-1,-1.172158E0,-1.0487078E0,-1.5471318E0,-9.5328426E-1,-1.5984848E0,-1.5859818E0,-9.941712E-1,-8.937966E-1,-1.915869E0,-1.6770402E0,-1.0355796E0,-1.6944801E0,-1.2974746E0,-1.6661536E0,-7.758621E-1,-8.675473E-2,-2.1032798E-1,-2.3116027E-1,-1.569705E-1,-1.5315543E-1,-1.9392627E-1,-1.11477375E-1,4.4337526E-2,-1.7239311E-1,-9.004042E-2,-1.3529186E-1,-5.795744E-2,8.794313E-2,-2.1845733E-1,1.3869015E-2,-9.1939285E-2],"categories":[],"categories_nodes":[],"categories_segments":[],"categories_sizes":[],"default_left":[0,0,0,0,0,0,0,0,0,0,0,0,0,0,0,0,0,0,0,0,0,0,0,0,0,0,0,0,0,0,0,0,0],"id":4,"left_children":[1,-1,3,5,7,9,11,13,15,17,19,21,23,25,27,29,31,-1,-1,-1,-1,-1,-1,-1,-1,-1,-1,-1,-1,-1,-1,-1,-1],"loss_changes":[7.3421753E3,0E0,1.2378613E2,1.0556421E2,1.2793091E1,9.802869E1,1.1547607E1,1.7312622E1,5.5421677E0,5.0316162E1,1.0139587E1,7.025696E0,5.109539E0,8.964722E0,6.1660767E0,1.5847933E1,4.9893208E0,0E0,0E0,0E0,0E0,0E0,0E0,0E0,0E0,0E0,0E0,0E0,0E0,0E0,0E0,0E0,0E0],"parents":[2147483647,0,0,2,2,3,3,4,4,5,5,6,6,7,7,8,8,9,9,10,10,11,11,12,12,13,13,14,14,15,15,16,16],"right_children":[2,-1,4,6,8,10,12,14,16,18,20,22,24,26,28,30,32,-1,-1,-1,-1,-1,-1,-1,-1,-1,-1,-1,-1,-1,-1,-1,-1],"split_conditions":[1E0,1.0759608E-1,1E0,1E0,1.0810529E0,1E0,8.081234E-1,1E0,-6.173753E-1,1E0,2.4156602E-1,0E0,2.2969048E0,5.6358695E-1,5.733402E-1,-1.6663747E0,-2.4443366E-1,-8.675473E-2,-2.1032798E-1,-2.3116027E-1,-1.569705E-1,-1.5315543E-1,-1.9392627E-1,-1.11477375E-1,4.4337526E-2,-1.7239311E-1,-9.004042E-2,-1.3529186E-1,-5.795744E-2,8.794313E-2,-2.1845733E-1,1.3869015E-2,-9.1939285E-2],"split_indices":[9,0,66,31,82,68,84,18,12,15,12,87,92,1,8,8,84,0,0,0,0,0,0,0,0,0,0,0,0,0,0,0,0],"split_type":[0,0,0,0,0,0,0,0,0,0,0,0,0,0,0,0,0,0,0,0,0,0,0,0,0,0,0,0,0,0,0,0,0],"sum_hessian":[5.8396104E3,3.1314475E3,2.7081628E3,2.0402588E3,6.6790405E2,1.740839E3,2.9941983E2,6.223132E2,4.559086E1,1.6413333E3,9.950567E1,2.6101498E2,3.8404846E1,4.4869888E2,1.7361433E2,9.553114E0,3.6037746E1,1.608149E3,3.318422E1,4.3779423E1,5.5726246E1,1.7227452E2,8.874046E1,3.6686615E1,1.7182308E0,4.3152332E2,1.717554E1,1.6034616E2,1.3268162E1,1.4985329E0,8.054582E0,4.893156E0,3.114459E1],"tree_param":{"num_deleted":"0","num_feature":"95","num_nodes":"33","size_leaf_vector":"1"}},{"base_weights":[3.6497734E-2,9.763862E-1,-1.1226025E0,1.0058391E0,-1.8592043E0,-1.0053388E0,-1.4499058E0,1.0681506E-1,3.5011807E-1,-1.9165121E0,-3.6519226E-2,-1.1578547E0,-7.847399E-1,-1.4026246E0,-1.9671788E0,5.017609E-1,-7.0006174E-1,-1.955717E-1,-4.9068615E-2,-1.2747666E0,-9.057625E-1,-7.385851E-1,-1.3182111E0,-1.4190348E0,-8.2277936E-1,-6.834127E-2,-2.0001895E0,-6.418169E-2,5.3862035E-2,-1.4041376E-1,-4.5679323E-2,-1.2356535E-1,-2.0819382E-1,-8.4892824E-2,-1.9531105E-1,-6.917032E-2,-1.1771394E-1,-1.3584967E-1,2.8661937E-2,-1.4445044E-1,-1.0335195E-1,-9.5518485E-2,7.538289E-2,-5.0392944E-2,-2.0248115E-1],"categories":[],"categories_nodes":[],"categories_segments":[],"categories_sizes":[],"default_left":[0,0,0,0,0,0,0,0,0,0,0,0,0,0,0,0,0,0,0,0,0,0,0,0,0,0,0,0,0,0,0,0,0,0,0,0,0,0,0,0,0,0,0,0,0],"id":5,"left_children":[1,3,5,7,9,11,13,-1,15,17,-1,19,21,23,25,27,29,-1,-1,31,33,35,37,39,41,-1,43,-1,-1,-1,-1,-1,-1,-1,-1,-1,-1,-1,-1,-1,-1,-1,-1,-1,-1],"loss_changes":[6.246159E3,2.6629175E2,9.7079346E1,1.2768555E2,2.1168518E0,6.2795044E1,1.3747681E1,0E0,4.3902874E1,7.982712E-1,0E0,3.1776733E1,1.8159485E1,4.749878E0,9.23172E-1,1.0443188E1,5.340355E0,0E0,0E0,2.144934E1,1.962024E1,1.3936981E1,4.307411E0,4.4317627E0,4.789795E0,0E0,9.015198E-1,0E0,0E0,0E0,0E0,0E0,0E0,0E0,0E0,0E0,0E0,0E0,0E0,0E0,0E0,0E0,0E0,0E0,0E0],"parents":[2147483647,0,0,1,1,2,2,3,3,4,4,5,5,6,6,8,8,9,9,11,11,12,12,13,13,14,14,15,15,16,16,19,19,20,20,21,21,22,22,23,23,24,24,26,26],"right_children":[2,4,6,8,10,12,14,-1,16,18,-1,20,22,24,26,28,30,-1,-1,32,34,36,38,40,42,-1,44,-1,-1,-1,-1,-1,-1,-1,-1,-1,-1,-1,-1,-1,-1,-1,-1,-1,-1],"split_conditions":[1E0,1E0,1.677691E0,1E0,1.1908715E0,-9.685295E-2,7.216295E0,1.0681506E-1,1.677691E0,1.0389849E0,-3.6519226E-2,1E0,1E0,1E0,8.47876E-1,1E0,1E0,-1.955717E-1,-4.9068615E-2,1E0,1E0,1E0,1.4359844E0,1.165189E0,1.4359844E0,-6.834127E-2,-5.5960166E-1,-6.418169E-2,5.3862035E-2,-1.4041376E-1,-4.5679323E-2,-1.2356535E-1,-2.0819382E-1,-8.4892824E-2,-1.9531105E-1,-6.917032E-2,-1.1771394E-1,-1.3584967E-1,2.8661937E-2,-1.4445044E-1,-1.0335195E-1,-9.5518485E-2,7.538289E-2,-5.0392944E-2,-2.0248115E-1],"split_indices":[71,70,10,9,84,82,10,0,10,82,0,18,16,53,6,74,74,0,0,15,58,58,89,82,89,0,82,0,0,0,0,0,0,0,0,0,0,0,0,0,0,0,0,0,0],"split_type":[0,0,0,0,0,0,0,0,0,0,0,0,0,0,0,0,0,0,0,0,0,0,0,0,0,0,0,0,0,0,0,0,0,0,0,0,0,0,0,0,0,0,0,0,0],"sum_hessian":[5.7314404E3,3.165094E3,2.5663464E3,3.133195E3,3.1898859E1,1.8924174E3,6.73929E2,2.8607195E3,2.724756E2,3.0448124E1,1.4507343E0,1.1163534E3,7.76064E2,6.208885E2,5.304053E1,2.3855165E2,3.392394E1,2.9271627E1,1.1764969E0,7.598866E2,3.5646677E2,7.1646173E2,5.9602314E1,6.023929E2,1.849565E1,1.8737588E0,5.116677E1,6.9363456E0,2.3161531E2,7.4859343E0,2.6438005E1,7.2718054E2,3.270608E1,3.3983612E2,1.6630636E1,6.495963E2,6.686537E1,5.8292507E1,1.3098038E0,5.624848E2,3.9908062E1,1.7426317E1,1.0693313E0,1.1758828E0,4.9990887E1],"tree_param":{"num_deleted":"0","num_feature":"95","num_nodes":"45","size_leaf_vector":"1"}},{"base_weights":[3.5908725E-2,9.6594036E-1,-9.7288615E-1,9.9878263E-1,-1.6101522E0,-6.6994244E-1,-1.0986878E0,1.0611739E-1,3.798759E-1,-5.095974E-1,-1.7296015E0,-7.735839E-1,-2.1910746E-1,-1.0083117E0,-1.2799346E0,5.0711846E-1,-4.1514158E-1,3.9245364E-1,-1.3197571E-1,-1.7694829E0,-3.761044E-2,-8.233674E-1,-1.4966311E-2,-1.9513624E0,-1.589563E-1,-8.836554E-1,-1.2398368E0,-1.4520835E0,-9.957204E-1,5.5995185E-2,-7.176784E-2,-1.5673105E-1,-2.0892218E-2,7.9748675E-2,-2.154055E-2,-1.8137765E-1,-6.386363E-2,-1.2420187E-1,-7.607175E-2,4.0135197E-2,-3.756572E-2,-2.2248512E-2,-2.4123383E-1,-7.6034144E-3,-1.19940594E-1,-1.03635564E-1,-6.518494E-2,-1.5231998E-1,-1.125468E-1,-1.3628876E-1,-1.8061297E-1,-1.0304052E-1,7.5175404E-3],"categories":[],"categories_nodes":[],"categories_segments":[],"categories_sizes":[],"default_left":[0,0,0,0,0,0,0,0,0,0,0,0,0,0,0,0,0,0,0,0,0,0,0,0,0,0,0,0,0,0,0,0,0,0,0,0,0,0,0,0,0,0,0,0,0,0,0,0,0,0,0,0,0],"id":6,"left_children":[1,3,5,7,9,11,13,-1,15,17,19,21,23,25,27,29,31,33,-1,35,-1,37,39,41,43,45,47,49,51,-1,-1,-1,-1,-1,-1,-1,-1,-1,-1,-1,-1,-1,-1,-1,-1,-1,-1,-1,-1,-1,-1,-1,-1],"loss_changes":[5.245103E3,2.4770654E2,1.014668E2,1.10528564E2,3.9826279E0,3.6716736E1,2.9722412E1,0E0,2.698161E1,4.2014413E0,1.1136246E0,2.4214111E1,1.5210371E1,3.5502075E1,2.9194214E1,1.519323E1,8.478443E0,9.487264E-1,0E0,4.318161E-1,0E0,1.4843506E1,6.235704E0,3.3764477E0,1.242264E1,2.8624023E1,1.25877075E1,9.785767E0,8.970062E0,0E0,0E0,0E0,0E0,0E0,0E0,0E0,0E0,0E0,0E0,0E0,0E0,0E0,0E0,0E0,0E0,0E0,0E0,0E0,0E0,0E0,0E0,0E0,0E0],"parents":[2147483647,0,0,1,1,2,2,3,3,4,4,5,5,6,6,8,8,9,9,10,10,11,11,12,12,13,13,14,14,15,15,16,16,17,17,19,19,21,21,22,22,23,23,24,24,25,25,26,26,27,27,28,28],"right_children":[2,4,6,8,10,12,14,-1,16,18,20,22,24,26,28,30,32,34,-1,36,-1,38,40,42,44,46,48,50,52,-1,-1,-1,-1,-1,-1,-1,-1,-1,-1,-1,-1,-1,-1,-1,-1,-1,-1,-1,-1,-1,-1,-1,-1],"split_conditions":[1E0,1E0,-2.3588605E-1,1E0,-7.6677215E-1,6.912199E-1,8.179624E-1,1.0611739E-1,1.677691E0,1.1800785E0,-7.973937E-1,1E0,-7.486268E-1,1.677691E0,8.455018E-1,1E0,-6.2672204E-1,-2.1607202E-1,-1.3197571E-1,1.1529522E0,-3.761044E-2,-7.642548E-1,-2.2305715E-1,3.3875898E-1,1E0,-1.1678172E-1,1E0,1.4756273E0,9.548487E-1,5.5995185E-2,-7.176784E-2,-1.5673105E-1,-2.0892218E-2,7.9748675E-2,-2.154055E-2,-1.8137765E-1,-6.386363E-2,-1.2420187E-1,-7.607175E-2,4.0135197E-2,-3.756572E-2,-2.2248512E-2,-2.4123383E-1,-7.6034144E-3,-1.19940594E-1,-1.03635564E-1,-6.518494E-2,-1.5231998E-1,-1.125468E-1,-1.3628876E-1,-1.8061297E-1,-1.0304052E-1,7.5175404E-3],"split_indices":[71,70,94,9,94,8,94,0,10,88,4,64,11,10,12,67,11,12,0,80,0,12,82,5,37,12,66,94,82,0,0,0,0,0,0,0,0,0,0,0,0,0,0,0,0,0,0,0,0,0,0,0,0],"split_type":[0,0,0,0,0,0,0,0,0,0,0,0,0,0,0,0,0,0,0,0,0,0,0,0,0,0,0,0,0,0,0,0,0,0,0,0,0,0,0,0,0,0,0,0,0,0,0,0,0,0,0,0,0],"sum_hessian":[5.588534E3,2.907804E3,2.6807302E3,2.8718042E3,3.5999947E1,7.8843054E2,1.8922997E3,2.6081633E3,2.6364078E2,4.0403266E0,3.1959621E1,6.4047687E2,1.4795372E2,1.2670614E3,6.252383E2,2.2757889E2,3.606189E1,2.1557016E0,1.8846247E0,3.0746328E1,1.2132931E0,6.0095447E2,3.9522408E1,3.9100385E0,1.4404367E2,8.267464E2,4.4031497E2,3.8682736E2,2.3841092E2,2.1868828E2,8.890606E0,4.472632E0,3.1589256E1,1.1064706E0,1.0492312E0,2.9006283E1,1.7400451E0,7.57746E1,5.251799E2,1.8294136E1,2.1228271E1,1.1351879E0,2.7748506E0,1.344049E2,9.638777E0,4.9632547E2,3.3042096E2,1.2307153E2,3.1724344E2,3.1285764E2,7.3969734E1,2.3096802E2,7.4429045E0],"tree_param":{"num_deleted":"0","num_feature":"95","num_nodes":"53","size_leaf_vector":"1"}},{"base_weights":[3.8337864E-2,9.5133257E-1,-8.4293044E-1,1.0549368E-1,1.0470642E-1,-7.1718824E-1,-1.0895433E0,3.060196E-1,-1.3865515E0,-5.8711857E-1,-1.0332751E0,-1.2212468E0,-9.6941406E-1,3.9333686E-1,-1.0486121E0,-1.4416628E0,-2.6383976E-2,-1.277238E0,-5.443567E-1,-9.472664E-1,-1.4323999E0,-1.2373078E0,4.497918E-1,-8.7793726E-1,-1.2937366E0,-1.0183121E-1,4.5056414E-2,8.2253486E-2,-1.4731686E-1,-6.309274E-2,-1.4955018E-1,1.1149003E-2,-1.334783E-1,-5.6351293E-2,8.604663E-2,-1.5735468E-1,-8.8055745E-2,-1.6418342E-1,-1.148021E-1,-1.2846227E-1,-7.38365E-2,8.5924596E-2,-4.4844206E-2,-7.355465E-2,-1.1349621E-1,-1.4219934E-1,-3.3083808E-2],"categories":[],"categories_nodes":[],"categories_segments":[],"categories_sizes":[],"default_left":[0,0,0,0,0,0,0,0,0,0,0,0,0,0,0,0,0,0,0,0,0,0,0,0,0,0,0,0,0,0,0,0,0,0,0,0,0,0,0,0,0,0,0,0,0,0,0],"id":7,"left_children":[1,3,5,-1,7,9,11,13,15,17,19,21,23,25,27,29,-1,31,33,35,37,39,41,43,45,-1,-1,-1,-1,-1,-1,-1,-1,-1,-1,-1,-1,-1,-1,-1,-1,-1,-1,-1,-1,-1,-1],"loss_changes":[4.370622E3,2.339104E2,8.4932495E1,0E0,8.808674E1,7.477869E1,1.3553589E1,3.0940321E1,1.7797546E0,3.7708893E1,1.6948364E1,1.2378601E1,1.3460846E1,2.010493E1,1.3844057E1,4.9922943E-1,0E0,6.1574554E0,3.350937E1,1.7066162E1,3.629364E0,9.357666E0,2.1973288E0,1.3323883E1,1.2636429E1,0E0,0E0,0E0,0E0,0E0,0E0,0E0,0E0,0E0,0E0,0E0,0E0,0E0,0E0,0E0,0E0,0E0,0E0,0E0,0E0,0E0,0E0],"parents":[2147483647,0,0,1,1,2,2,4,4,5,5,6,6,7,7,8,8,9,9,10,10,11,11,12,12,13,13,14,14,15,15,17,17,18,18,19,19,20,20,21,21,22,22,23,23,24,24],"right_children":[2,4,6,-1,8,10,12,14,16,18,20,22,24,26,28,30,-1,32,34,36,38,40,42,44,46,-1,-1,-1,-1,-1,-1,-1,-1,-1,-1,-1,-1,-1,-1,-1,-1,-1,-1,-1,-1,-1,-1],"split_conditions":[1E0,1E0,5.485576E-1,1.0549368E-1,1E0,1.677691E0,2.2720402E-1,1E0,1E0,-8.423331E-1,5.370094E0,1E0,1.4756273E0,-8.36486E-1,-5.76604E-1,-7.6677215E-1,-2.6383976E-2,-2.3039646E0,1E0,-7.551381E-1,1.7944439E-1,1.4998314E0,1.2220697E0,-2.3332891E-1,8.0955744E-1,-1.0183121E-1,4.5056414E-2,8.2253486E-2,-1.4731686E-1,-6.309274E-2,-1.4955018E-1,1.1149003E-2,-1.334783E-1,-5.6351293E-2,8.604663E-2,-1.5735468E-1,-8.8055745E-2,-1.6418342E-1,-1.148021E-1,-1.2846227E-1,-7.38365E-2,8.5924596E-2,-4.4844206E-2,-7.355465E-2,-1.1349621E-1,-1.4219934E-1,-3.3083808E-2],"split_indices":[71,9,94,0,70,10,12,76,41,12,10,23,94,12,94,94,0,94,56,12,12,92,94,88,81,0,0,0,0,0,0,0,0,0,0,0,0,0,0,0,0,0,0,0,0,0,0],"split_type":[0,0,0,0,0,0,0,0,0,0,0,0,0,0,0,0,0,0,0,0,0,0,0,0,0,0,0,0,0,0,0,0,0,0,0,0,0,0,0,0,0,0,0,0,0,0,0],"sum_hessian":[5.4300923E3,2.6669993E3,2.763093E3,2.3759954E3,2.9100378E2,1.8326006E3,9.3049225E2,2.570923E2,3.3911526E1,1.3003602E3,5.322405E2,4.3949112E2,4.9100116E2,2.421907E2,1.49015665E1,3.2053978E1,1.8575454E0,7.4188416E1,1.2261718E3,4.4065555E2,9.1584915E1,4.3556433E2,3.9268022E0,3.858712E2,1.05129974E2,8.781425E0,2.3340929E2,2.582467E0,1.2319099E1,2.7881057E0,2.9265873E1,2.9145439E0,7.127387E1,1.2102675E3,1.5904356E1,4.024428E1,4.0041125E2,4.999334E1,4.159158E1,3.9639905E2,3.9165276E1,2.7270837E0,1.1997185E0,2.5079404E2,1.3507715E2,9.235203E1,1.2777949E1],"tree_param":{"num_deleted":"0","num_feature":"95","num_nodes":"47","size_leaf_vector":"1"}},{"base_weights":[3.1588808E-2,1.04935065E-1,-6.7222816E-1,-7.554214E-1,3.5965797E-1,-5.132114E-1,-8.562472E-1,4.476809E-1,-2.9422736E-1,-6.089558E-1,-1.0275305E-1,-7.8398293E-1,-1.0245538E0,6.012346E-1,1.12133846E-1,-5.4116803E-1,5.522185E-1,-6.493722E-2,2.7430952E-3,-2.9519587E-3,-1.0098696E-1,-6.6951126E-2,-9.668585E-2,-9.770187E-2,-1.4578012E-1,6.327229E-2,-5.161218E-2,-1.13473736E-1,1.9068388E-2,-1.7957829E-1,-3.0030852E-2,2.4994004E-3,8.766556E-2],"categories":[],"categories_nodes":[],"categories_segments":[],"categories_sizes":[],"default_left":[0,0,0,0,0,0,0,0,0,0,0,0,0,0,0,0,0,0,0,0,0,0,0,0,0,0,0,0,0,0,0,0,0],"id":8,"left_children":[1,-1,3,5,7,9,11,13,15,17,19,21,23,25,27,29,31,-1,-1,-1,-1,-1,-1,-1,-1,-1,-1,-1,-1,-1,-1,-1,-1],"loss_changes":[3.7825671E3,0E0,2.682649E2,7.011792E1,1.3576223E1,3.3408295E1,2.3990112E1,1.0560509E1,6.2177215E0,1.77753E1,1.0751651E1,2.9297302E1,1.1119385E1,5.297371E0,6.6793327E0,6.237742E0,1.1566877E0,0E0,0E0,0E0,0E0,0E0,0E0,0E0,0E0,0E0,0E0,0E0,0E0,0E0,0E0,0E0,0E0],"parents":[2147483647,0,0,2,2,3,3,4,4,5,5,6,6,7,7,8,8,9,9,10,10,11,11,12,12,13,13,14,14,15,15,16,16],"right_children":[2,-1,4,6,8,10,12,14,16,18,20,22,24,26,28,30,32,-1,-1,-1,-1,-1,-1,-1,-1,-1,-1,-1,-1,-1,-1,-1,-1],"split_conditions":[1E0,1.04935065E-1,1E0,-2.3588605E-1,1.677691E0,6.912199E-1,1.677691E0,3.029237E-1,1E0,1E0,1E0,8.179624E-1,7.216295E0,1E0,-6.2672204E-1,-6.2672204E-1,1E0,-6.493722E-2,2.7430952E-3,-2.9519587E-3,-1.0098696E-1,-6.6951126E-2,-9.668585E-2,-9.770187E-2,-1.4578012E-1,6.327229E-2,-5.161218E-2,-1.13473736E-1,1.9068388E-2,-1.7957829E-1,-3.0030852E-2,2.4994004E-3,8.766556E-2],"split_indices":[9,0,74,94,10,8,10,94,47,64,37,94,10,32,11,11,13,0,0,0,0,0,0,0,0,0,0,0,0,0,0,0,0],"split_type":[0,0,0,0,0,0,0,0,0,0,0,0,0,0,0,0,0,0,0,0,0,0,0,0,0,0,0,0,0,0,0,0,0],"sum_hessian":[5.278585E3,2.157794E3,3.1207913E3,2.8882048E3,2.3258636E2,8.506973E2,2.0375074E3,2.0526935E2,2.7317024E1,6.894024E2,1.6129495E2,1.429426E3,6.080814E2,1.402816E2,6.498774E1,2.1426695E1,5.890329E0,6.482144E2,4.118795E1,1.5020142E2,1.1093538E1,8.819973E2,5.474288E2,5.508936E2,5.7187855E1,1.368585E2,3.4230928E0,3.0545774E0,6.1933167E1,2.4112082E0,1.9015488E1,2.6541903E0,3.2361383E0],"tree_param":{"num_deleted":"0","num_feature":"95","num_nodes":"33","size_leaf_vector":"1"}},{"base_weights":[3.2708842E-2,1.0443383E-1,-5.871883E-1,-3.628955E-1,-6.9808096E-1,-7.566596E-1,-2.7118665E-1,-6.1516213E-1,-8.945262E-1,7.021382E-1,-7.8939486E-1,-3.6014557E-1,2.7535117E-4,-4.994335E-1,-7.94239E-1,-1.0885197E0,-8.0189556E-1,2.1420976E-2,9.2683524E-2,-8.215043E-2,6.3157246E-2,-1.909019E-2,-4.866329E-2,4.092694E-2,-1.6060937E-2,-5.9777748E-2,-1.4156493E-2,-8.762457E-2,-4.6923257E-2,-2.6403947E-2,-1.1289046E-1,-1.05211034E-1,-7.049059E-2],"categories":[],"categories_nodes":[],"categories_segments":[],"categories_sizes":[],"default_left":[0,0,0,0,0,0,0,0,0,0,0,0,0,0,0,0,0,0,0,0,0,0,0,0,0,0,0,0,0,0,0,0,0],"id":9,"left_children":[1,-1,3,5,7,9,11,13,15,17,19,21,23,25,27,29,31,-1,-1,-1,-1,-1,-1,-1,-1,-1,-1,-1,-1,-1,-1,-1,-1],"loss_changes":[3.2290928E3,0E0,7.915918E1,3.8014908E1,3.423352E1,1.007534E1,2.076844E1,3.0789185E1,1.0477081E1,3.3923435E-1,9.437553E0,1.3773453E1,1.4098851E1,3.2180313E1,1.5288055E1,6.4053955E0,9.724976E0,0E0,0E0,0E0,0E0,0E0,0E0,0E0,0E0,0E0,0E0,0E0,0E0,0E0,0E0,0E0,0E0],"parents":[2147483647,0,0,2,2,3,3,4,4,5,5,6,6,7,7,8,8,9,9,10,10,11,11,12,12,13,13,14,14,15,15,16,16],"right_children":[2,-1,4,6,8,10,12,14,16,18,20,22,24,26,28,30,32,-1,-1,-1,-1,-1,-1,-1,-1,-1,-1,-1,-1,-1,-1,-1,-1],"split_conditions":[1E0,1.0443383E-1,-1.1703096E-1,-6.173753E-1,1.677691E0,-2.2557733E0,5.733402E-1,8.179624E-1,-2.7667922E-1,0E0,9.531559E-1,0E0,-1.1312611E0,3.8683072E-1,1.9011182E0,-2.1197581E0,-5.1630255E-2,2.1420976E-2,9.2683524E-2,-8.215043E-2,6.3157246E-2,-1.909019E-2,-4.866329E-2,4.092694E-2,-1.6060937E-2,-5.9777748E-2,-1.4156493E-2,-8.762457E-2,-4.6923257E-2,-2.6403947E-2,-1.1289046E-1,-1.05211034E-1,-7.049059E-2],"split_indices":[9,0,94,12,10,8,8,94,12,92,3,88,94,12,12,8,89,0,0,0,0,0,0,0,0,0,0,0,0,0,0,0,0],"split_type":[0,0,0,0,0,0,0,0,0,0,0,0,0,0,0,0,0,0,0,0,0,0,0,0,0,0,0,0,0,0,0,0,0],"sum_hessian":[5.1472183E3,1.9554213E3,3.191797E3,1.0573867E3,2.1344104E3,1.9837723E2,8.590096E2,1.5037952E3,6.306152E2,3.905058E0,1.9447217E2,6.4674316E2,2.122664E2,9.157678E2,5.8802734E2,2.0032646E2,4.3028873E2,1.8471999E0,2.057858E0,1.9058736E2,3.88481E0,2.7769223E2,3.6905093E2,5.9489906E1,1.5277649E2,7.178334E2,1.9793443E2,4.6819473E2,1.1983261E2,9.7062435E0,1.9062022E2,1.1744793E2,3.1284082E2],"tree_param":{"num_deleted":"0","num_feature":"95","num_nodes":"33","size_leaf_vector":"1"}},{"base_weights":[4.0237628E-2,1.0398368E-1,-5.145347E-1,-5.867164E-1,4.004391E-1,-5.074951E-1,-8.1946653E-1,-6.462557E-1,4.7039974E-1,-3.7415642E-1,-6.667861E-1,-1.0415276E0,-7.3760325E-1,-1.2640629E0,4.6165556E-1,7.214494E-1,2.7623805E-1,-4.5809876E-2,-3.5250236E-3,-7.675075E-2,-4.5914233E-2,-1.0833608E-1,-1.699884E-2,-6.371078E-2,-9.047154E-2,-4.2864442E-2,-1.6482583E-1,7.077389E-2,-3.615194E-2,7.5311944E-2,-2.0793336E-2,3.1032978E-2,-7.557933E-2],"categories":[],"categories_nodes":[],"categories_segments":[],"categories_sizes":[],"default_left":[0,0,0,0,0,0,0,0,0,0,0,0,0,0,0,0,0,0,0,0,0,0,0,0,0,0,0,0,0,0,0,0,0],"id":10,"left_children":[1,-1,3,5,7,9,11,13,15,17,19,21,23,25,27,29,31,-1,-1,-1,-1,-1,-1,-1,-1,-1,-1,-1,-1,-1,-1,-1,-1],"loss_changes":[2.7606438E3,0E0,2.1167297E2,5.430609E1,1.748956E1,4.68338E1,1.290213E1,1.0936175E1,1.0551861E1,3.437706E1,2.0745941E1,7.112335E0,8.708557E0,2.495963E0,1.5010964E0,2.969551E0,4.667454E0,0E0,0E0,0E0,0E0,0E0,0E0,0E0,0E0,0E0,0E0,0E0,0E0,0E0,0E0,0E0,0E0],"parents":[2147483647,0,0,2,2,3,3,4,4,5,5,6,6,7,7,8,8,9,9,10,10,11,11,12,12,13,13,14,14,15,15,16,16],"right_children":[2,-1,4,6,8,10,12,14,16,18,20,22,24,26,28,30,32,-1,-1,-1,-1,-1,-1,-1,-1,-1,-1,-1,-1,-1,-1,-1,-1],"split_conditions":[1E0,1.0398368E-1,1E0,1.677691E0,-7.861488E-1,1.840686E-1,-3.4412453E-1,1E0,-1.1703096E-1,4.5673347E-1,6.652949E-1,1.2835706E0,3.5238924E0,1E0,8.700284E-1,1E0,1E0,-4.5809876E-2,-3.5250236E-3,-7.675075E-2,-4.5914233E-2,-1.0833608E-1,-1.699884E-2,-6.371078E-2,-9.047154E-2,-4.2864442E-2,-1.6482583E-1,7.077389E-2,-3.615194E-2,7.5311944E-2,-2.0793336E-2,3.1032978E-2,-7.557933E-2],"split_indices":[9,0,74,10,12,94,11,54,94,80,12,81,10,14,87,37,41,0,0,0,0,0,0,0,0,0,0,0,0,0,0,0,0],"split_type":[0,0,0,0,0,0,0,0,0,0,0,0,0,0,0,0,0,0,0,0,0,0,0,0,0,0,0,0,0,0,0,0,0],"sum_hessian":[4.976205E3,1.7757504E3,3.2004546E3,2.966767E3,2.3368748E2,2.215766E3,7.510009E2,1.4124886E1,2.1956259E2,1.2079602E3,1.00780585E3,1.9912758E2,5.5187335E2,8.977692E0,5.147194E0,9.4569374E1,1.2499322E2,9.678785E2,2.4008174E2,6.7681036E2,3.3099548E2,1.8977547E2,9.352105E0,3.4763196E2,2.042414E2,3.494571E0,5.4831204E0,4.070557E0,1.076637E0,9.163639E1,2.9329834E0,1.2167322E2,3.3200023E0],"tree_param":{"num_deleted":"0","num_feature":"95","num_nodes":"33","size_leaf_vector":"1"}},{"base_weights":[2.434919E-2,1.0357895E-1,-4.7821254E-1,-5.426565E-1,3.761055E-1,-2.8017837E-1,-6.0408914E-1,-5.0353795E-1,4.441778E-1,-5.25984E-1,-1.8555826E-1,-1.0666689E0,-5.770436E-1,-8.8535887E-1,3.0233577E-1,4.8691338E-1,-6.032727E-1,-8.1099235E-2,-3.436809E-2,-9.191037E-3,-4.548865E-2,-1.1773956E-1,-6.294076E-2,-5.0808765E-2,-7.587715E-2,-1.2564255E-1,4.9939636E-2,-5.5868786E-2,6.7208864E-2,6.714504E-2,3.393733E-2,4.7421828E-2,-1.0559864E-1],"categories":[],"categories_nodes":[],"categories_segments":[],"categories_sizes":[],"default_left":[0,0,0,0,0,0,0,0,0,0,0,0,0,0,0,0,0,0,0,0,0,0,0,0,0,0,0,0,0,0,0,0,0],"id":11,"left_children":[1,-1,3,5,7,9,11,13,15,17,19,21,23,25,27,29,31,-1,-1,-1,-1,-1,-1,-1,-1,-1,-1,-1,-1,-1,-1,-1,-1],"loss_changes":[2.479587E3,0E0,1.796236E2,4.8700073E1,1.3946522E1,1.3314571E1,3.0098633E1,5.476975E0,9.839333E0,8.020878E0,1.0499192E1,5.7676086E0,2.8707031E1,6.6608057E0,2.3455546E0,5.365547E0,4.7962437E0,0E0,0E0,0E0,0E0,0E0,0E0,0E0,0E0,0E0,0E0,0E0,0E0,0E0,0E0,0E0,0E0],"parents":[2147483647,0,0,2,2,3,3,4,4,5,5,6,6,7,7,8,8,9,9,10,10,11,11,12,12,13,13,14,14,15,15,16,16],"right_children":[2,-1,4,6,8,10,12,14,16,18,20,22,24,26,28,30,32,-1,-1,-1,-1,-1,-1,-1,-1,-1,-1,-1,-1,-1,-1,-1,-1],"split_conditions":[1E0,1.0357895E-1,1E0,-6.9545907E-1,-7.758587E-1,-5.332293E-1,-8.2668734E-1,1E0,1.0061002E0,-6.1248225E-1,1.2575741E-1,1E0,1.677691E0,1E0,0E0,-1.1703096E-1,-6.437378E-1,-8.1099235E-2,-3.436809E-2,-9.191037E-3,-4.548865E-2,-1.1773956E-1,-6.294076E-2,-5.0808765E-2,-7.587715E-2,-1.2564255E-1,4.9939636E-2,-5.5868786E-2,6.7208864E-2,6.714504E-2,3.393733E-2,4.7421828E-2,-1.0559864E-1],"split_indices":[9,0,74,94,12,12,12,54,6,81,12,54,10,18,81,94,82,0,0,0,0,0,0,0,0,0,0,0,0,0,0,0,0],"split_type":[0,0,0,0,0,0,0,0,0,0,0,0,0,0,0,0,0,0,0,0,0,0,0,0,0,0,0,0,0,0,0,0,0],"sum_hessian":[4.876114E3,1.6182375E3,3.2578765E3,3.0297012E3,2.2817522E2,5.756654E2,2.4540356E3,1.592983E1,2.1224539E2,1.5873697E2,4.1692844E2,1.3343085E2,2.320605E3,1.0741773E1,5.188057E0,2.0443948E2,7.805906E0,6.0579643E1,9.8157326E1,3.1035605E2,1.0657238E2,1.05119095E2,2.8311752E1,1.6850248E3,6.3558014E2,8.544748E0,2.1970246E0,1.4050999E0,3.7829573E0,8.9253685E1,1.1518579E2,2.2953374E0,5.5105686E0],"tree_param":{"num_deleted":"0","num_feature":"95","num_nodes":"33","size_leaf_vector":"1"}},{"base_weights":[3.455564E-2,1.032141E-1,-4.1511714E-1,7.2245814E-2,-4.5900598E-1,2.1983014E-1,-1.0035033E0,-3.9863685E-1,-6.441085E-1,2.954926E-1,-8.2944465E-1,-4.03899E-1,-1.1736598E0,-3.376727E-1,-6.4820105E-1,-1.0029076E0,-5.835539E-1,-7.878316E-2,3.4844097E-2,5.3089213E-2,-1.1040212E-1,3.6497783E-2,-1.08470835E-1,-1.2600039E-1,-2.4005156E-2,-5.0106682E-2,-2.1448148E-2,-6.859906E-2,2.4763959E-2,-1.0583266E-1,-1.0242998E-2,-5.5022597E-2,-9.644272E-2],"categories":[],"categories_nodes":[],"categories_segments":[],"categories_sizes":[],"default_left":[0,0,0,0,0,0,0,0,0,0,0,0,0,0,0,0,0,0,0,0,0,0,0,0,0,0,0,0,0,0,0,0,0],"id":12,"left_children":[1,-1,3,5,7,9,11,13,15,17,19,21,23,25,27,29,31,-1,-1,-1,-1,-1,-1,-1,-1,-1,-1,-1,-1,-1,-1,-1,-1],"loss_changes":[2.1197356E3,0E0,6.9704346E1,4.3079727E1,3.3135437E1,1.9156599E1,2.8670692E0,3.4104614E1,1.534671E1,1.3061472E1,6.668599E0,4.9832573E0,1.711525E0,3.642943E1,1.5126831E1,5.1062393E0,7.4636993E0,0E0,0E0,0E0,0E0,0E0,0E0,0E0,0E0,0E0,0E0,0E0,0E0,0E0,0E0,0E0,0E0],"parents":[2147483647,0,0,2,2,3,3,4,4,5,5,6,6,7,7,8,8,9,9,10,10,11,11,12,12,13,13,14,14,15,15,16,16],"right_children":[2,-1,4,6,8,10,12,14,16,18,20,22,24,26,28,30,32,-1,-1,-1,-1,-1,-1,-1,-1,-1,-1,-1,-1,-1,-1,-1,-1],"split_conditions":[1E0,1.032141E-1,1E0,1E0,1.677691E0,1E0,-1.3846903E-1,9.6851224E-1,-5.6299907E-1,-8.36486E-1,-6.320697E-1,1.3831437E-1,2.165732E0,-3.7179732E-1,1E0,1E0,7.216295E0,-7.878316E-2,3.4844097E-2,5.3089213E-2,-1.1040212E-1,3.6497783E-2,-1.08470835E-1,-1.2600039E-1,-2.4005156E-2,-5.0106682E-2,-2.1448148E-2,-6.859906E-2,2.4763959E-2,-1.0583266E-1,-1.0242998E-2,-5.5022597E-2,-9.644272E-2],"split_indices":[9,0,71,70,10,76,81,94,11,12,94,84,12,12,49,39,10,0,0,0,0,0,0,0,0,0,0,0,0,0,0,0,0],"split_type":[0,0,0,0,0,0,0,0,0,0,0,0,0,0,0,0,0,0,0,0,0,0,0,0,0,0,0,0,0,0,0,0,0],"sum_hessian":[4.7234062E3,1.4671914E3,3.2562146E3,2.6895547E2,2.987259E3,2.3720804E2,3.174743E1,2.254977E3,7.3228204E2,2.2192366E2,1.5284372E1,7.763564E0,2.3983868E1,1.8141622E3,4.4081482E2,1.0349425E2,6.287878E2,9.694518E0,2.1222914E2,2.4101672E0,1.2874206E1,3.8638284E0,3.8997355E0,2.16335E1,2.3503683E0,7.785151E2,1.0356472E3,4.2319717E2,1.7617628E1,9.732894E1,6.1653E0,5.804415E2,4.8346294E1],"tree_param":{"num_deleted":"0","num_feature":"95","num_nodes":"33","size_leaf_vector":"1"}},{"base_weights":[3.194365E-2,1.0288572E-1,-3.774059E-1,-4.2548543E-1,3.003665E-1,-2.1459554E-1,-4.7883242E-1,3.9092708E-1,-1.871829E-1,-1.0305116E-1,-4.2984924E-1,-4.557712E-1,-1.0019431E0,4.6345538E-1,8.1585385E-3,-9.337052E-1,7.68101E-2,-1.1364017E-1,-8.429893E-3,-4.5530822E-2,5.3616177E-2,-5.2294012E-2,-2.6953E-2,-1.0382964E-1,3.1084552E-2,1.4906213E-2,5.3631265E-2,-9.915612E-2,3.6059376E-2,-1.8183817E-1,-4.179449E-2,8.585494E-2,-2.5485277E-2],"categories":[],"categories_nodes":[],"categories_segments":[],"categories_sizes":[],"default_left":[0,0,0,0,0,0,0,0,0,0,0,0,0,0,0,0,0,0,0,0,0,0,0,0,0,0,0,0,0,0,0,0,0],"id":13,"left_children":[1,-1,3,5,7,9,11,13,15,17,19,21,23,25,27,29,31,-1,-1,-1,-1,-1,-1,-1,-1,-1,-1,-1,-1,-1,-1,-1,-1],"loss_changes":[1.8814562E3,0E0,1.06636475E2,3.4237366E1,9.65802E0,1.4795412E1,2.8921753E1,5.087734E0,6.906781E0,7.8182745E0,5.4245834E0,2.9060333E1,5.190239E0,3.4514008E0,1.1009945E1,3.4088774E0,7.101398E0,0E0,0E0,0E0,0E0,0E0,0E0,0E0,0E0,0E0,0E0,0E0,0E0,0E0,0E0,0E0,0E0],"parents":[2147483647,0,0,2,2,3,3,4,4,5,5,6,6,7,7,8,8,9,9,10,10,11,11,12,12,13,13,14,14,15,15,16,16],"right_children":[2,-1,4,6,8,10,12,14,16,18,20,22,24,26,28,30,32,-1,-1,-1,-1,-1,-1,-1,-1,-1,-1,-1,-1,-1,-1,-1,-1],"split_conditions":[1E0,1.0288572E-1,1E0,-6.320697E-1,1E0,7.2617364E-1,1E0,8.6550444E-1,-1.3490062E0,-7.486268E-1,2.6026827E-1,1E0,4.0796384E-1,-5.6299907E-1,1.2920624E0,-6.183406E-1,-1.1703096E-1,-1.1364017E-1,-8.429893E-3,-4.5530822E-2,5.3616177E-2,-5.2294012E-2,-2.6953E-2,-1.0382964E-1,3.1084552E-2,1.4906213E-2,5.3631265E-2,-9.915612E-2,3.6059376E-2,-1.8183817E-1,-4.179449E-2,8.585494E-2,-2.5485277E-2],"split_indices":[9,0,74,94,66,85,41,94,8,11,83,18,82,11,5,89,94,0,0,0,0,0,0,0,0,0,0,0,0,0,0,0,0],"split_type":[0,0,0,0,0,0,0,0,0,0,0,0,0,0,0,0,0,0,0,0,0,0,0,0,0,0,0,0,0,0,0,0,0],"sum_hessian":[4.608488E3,1.3410455E3,3.2674421E3,3.0513584E3,2.1608376E2,6.1705505E2,2.4343032E3,1.824015E2,3.3682255E1,4.074127E2,2.0964238E2,2.333311E3,1.00992165E2,1.5316791E2,2.9233587E1,8.136609E0,2.5545647E1,6.1992517E0,4.0121344E2,2.0477428E2,4.8681016E0,1.7135149E3,6.197962E2,9.847434E1,2.5178232E0,2.9390053E1,1.23777855E2,7.1469774E0,2.208661E1,2.06644E0,6.070169E0,7.1363754E0,1.8409271E1],"tree_param":{"num_deleted":"0","num_feature":"95","num_nodes":"33","size_leaf_vector":"1"}},{"base_weights":[3.6856905E-2,8.599787E-1,-3.641922E-1,1.3974293E-1,9.770363E-1,-3.2913485E-1,-6.617043E-1,2.5302675E-1,-7.8587615E-1,1.0144719E0,-4.9213523E-1,-8.227048E-1,-3.0352727E-1,-8.4830064E-1,-4.448806E-1,-1.0144601E0,3.0590695E-1,-1.3565344E0,-3.4277344E-1,1.02384E0,4.9864233E-1,-1.6405137E-1,-1.1361357E0,-8.795959E-1,3.3953977E-1,-3.1982246E-1,3.696501E-1,-1.0506513E0,-5.0393134E-1,-5.1070726E-1,3.7934753E-1,2.9099673E-2,-1.6671388E-1,5.4289486E-2,6.653325E-3,-4.1354764E-2,-1.4362958E-1,9.542738E-3,-1.2643954E-1,1.0260248E-1,-5.087566E-2,1.594935E-2,7.17191E-2,2.851112E-2,-7.141165E-2,-1.2014909E-1,-2.9425783E-2,-7.860081E-2,-1.5947458E-1,-6.145185E-2,6.559268E-2,-2.9890288E-2,-8.4776804E-2,5.488524E-2,-1.9865023E-2,-1.0833484E-1,-5.3000095E-4,-2.7539937E-2,-1.06737725E-1,-5.3092446E-2,8.177739E-2,-1.4127563E-3,1.0198432E-1],"categories":[],"categories_nodes":[],"categories_segments":[],"categories_sizes":[],"default_left":[0,0,0,0,0,0,0,0,0,0,0,0,0,0,0,0,0,0,0,0,0,0,0,0,0,0,0,0,0,0,0,0,0,0,0,0,0,0,0,0,0,0,0,0,0,0,0,0,0,0,0,0,0,0,0,0,0,0,0,0,0,0,0],"id":14,"left_children":[1,3,5,7,9,11,13,15,17,19,21,23,25,27,29,31,33,35,37,39,41,43,45,47,49,51,53,55,57,59,61,-1,-1,-1,-1,-1,-1,-1,-1,-1,-1,-1,-1,-1,-1,-1,-1,-1,-1,-1,-1,-1,-1,-1,-1,-1,-1,-1,-1,-1,-1,-1,-1],"loss_changes":[1.4817471E3,1.238396E2,3.1261688E1,2.1878105E1,7.005969E1,3.3901306E1,1.2454666E1,1.270736E1,5.29716E0,5.4508057E0,6.595756E0,9.072136E0,2.8313446E1,1.1272324E1,8.267252E0,6.994164E0,1.0079855E1,1.2974358E-1,5.841548E0,4.5759277E0,1.6611056E0,5.746434E0,2.332468E-1,7.231415E0,2.4898896E0,2.7469238E1,6.3428507E0,3.6090164E0,8.025045E0,4.146637E0,2.9325397E0,0E0,0E0,0E0,0E0,0E0,0E0,0E0,0E0,0E0,0E0,0E0,0E0,0E0,0E0,0E0,0E0,0E0,0E0,0E0,0E0,0E0,0E0,0E0,0E0,0E0,0E0,0E0,0E0,0E0,0E0,0E0,0E0],"parents":[2147483647,0,0,1,1,2,2,3,3,4,4,5,5,6,6,7,7,8,8,9,9,10,10,11,11,12,12,13,13,14,14,15,15,16,16,17,17,18,18,19,19,20,20,21,21,22,22,23,23,24,24,25,25,26,26,27,27,28,28,29,29,30,30],"right_children":[2,4,6,8,10,12,14,16,18,20,22,24,26,28,30,32,34,36,38,40,42,44,46,48,50,52,54,56,58,60,62,-1,-1,-1,-1,-1,-1,-1,-1,-1,-1,-1,-1,-1,-1,-1,-1,-1,-1,-1,-1,-1,-1,-1,-1,-1,-1,-1,-1,-1,-1,-1,-1],"split_conditions":[1E0,-1.5049278E-2,1.2220697E0,1E0,1.677691E0,-8.423331E-1,7.711043E-1,-8.36486E-1,-3.4012067E-1,1E0,1E0,1E0,3.1314354E0,-4.7546554E-1,9.531559E-1,-3.7322006E-1,-4.5717906E-2,3.611206E-1,8.987386E-1,1E0,-6.4097434E-1,1E0,1.3043607E0,1E0,0E0,5.370094E0,0E0,1E0,1E0,-4.0078145E-2,0E0,2.9099673E-2,-1.6671388E-1,5.4289486E-2,6.653325E-3,-4.1354764E-2,-1.4362958E-1,9.542738E-3,-1.2643954E-1,1.0260248E-1,-5.087566E-2,1.594935E-2,7.17191E-2,2.851112E-2,-7.141165E-2,-1.2014909E-1,-2.9425783E-2,-7.860081E-2,-1.5947458E-1,-6.145185E-2,6.559268E-2,-2.9890288E-2,-8.4776804E-2,5.488524E-2,-1.9865023E-2,-1.0833484E-1,-5.3000095E-4,-2.7539937E-2,-1.06737725E-1,-5.3092446E-2,8.177739E-2,-1.4127563E-3,1.0198432E-1],"split_indices":[71,83,94,70,10,12,12,12,84,74,70,39,12,82,3,91,94,6,90,70,12,68,11,47,84,10,85,39,66,83,81,0,0,0,0,0,0,0,0,0,0,0,0,0,0,0,0,0,0,0,0,0,0,0,0,0,0,0,0,0,0,0,0],"split_type":[0,0,0,0,0,0,0,0,0,0,0,0,0,0,0,0,0,0,0,0,0,0,0,0,0,0,0,0,0,0,0,0,0,0,0,0,0,0,0,0,0,0,0,0,0,0,0,0,0,0,0,0,0,0,0,0,0,0,0,0,0,0,0],"sum_hessian":[4.486667E3,1.4694965E3,3.0171707E3,2.0574934E2,1.2637472E3,2.7010042E3,3.161664E2,1.8396147E2,2.178787E1,1.2326478E3,3.1099314E1,1.3168744E2,2.5693167E3,1.6836275E2,1.4780367E2,6.6393175E0,1.7732216E2,8.622184E0,1.3165688E1,1.2096937E3,2.2954128E1,2.143438E1,9.664934E0,1.2577407E2,5.9133635E0,2.5091052E3,6.021149E1,1.0475686E2,6.360588E1,1.3722466E2,1.0579011E1,2.3977003E0,4.241617E0,8.846796E1,8.88542E1,1.1547576E0,7.467426E0,9.53064E0,3.6350477E0,1.2083018E3,1.3920337E0,9.673052E0,1.3281076E1,1.2064575E1,9.369803E0,8.572309E0,1.0926254E0,1.1307557E2,1.2698507E1,1.2379755E0,4.675388E0,2.414979E3,9.412624E1,4.580273E1,1.4408763E1,1.0154436E2,3.2125006E0,4.631104E1,1.7294844E1,1.3575899E2,1.4656664E0,7.1589823E0,3.4200282E0],"tree_param":{"num_deleted":"0","num_feature":"95","num_nodes":"63","size_leaf_vector":"1"}},{"base_weights":[2.7509522E-2,1.0231973E-1,-3.040981E-1,-3.4195068E-1,2.648196E-1,-3.107931E-1,-6.7727953E-1,-6.6379714E-1,3.1954E-1,-2.8831246E-1,-7.5293183E-1,-9.381362E-1,-5.1044875E-1,-1.0715942E0,2.3453824E-1,3.9362583E-1,-1.6823442E-1,-2.3859655E-2,-5.3070515E-2,-9.649756E-2,-3.876056E-2,-3.3534084E-2,-1.0201923E-1,-6.321324E-2,4.2139757E-3,-9.712869E-3,-1.6022469E-1,-7.843853E-3,6.292911E-2,1.4309316E-2,5.204327E-2,-1.0167947E-1,5.4684253E-3],"categories":[],"categories_nodes":[],"categories_segments":[],"categories_sizes":[],"default_left":[0,0,0,0,0,0,0,0,0,0,0,0,0,0,0,0,0,0,0,0,0,0,0,0,0,0,0,0,0,0,0,0,0],"id":15,"left_children":[1,-1,3,5,7,9,11,13,15,17,19,21,23,25,27,29,31,-1,-1,-1,-1,-1,-1,-1,-1,-1,-1,-1,-1,-1,-1,-1,-1],"loss_changes":[1.4499318E3,0E0,7.103342E1,3.2065857E1,1.06836405E1,2.7896423E1,1.091391E1,4.571384E0,7.1231575E0,3.2328613E1,1.0179344E1,4.6499023E0,1.0910587E1,4.1312904E0,6.056081E-1,5.3209667E0,5.0589E0,0E0,0E0,0E0,0E0,0E0,0E0,0E0,0E0,0E0,0E0,0E0,0E0,0E0,0E0,0E0,0E0],"parents":[2147483647,0,0,2,2,3,3,4,4,5,5,6,6,7,7,8,8,9,9,10,10,11,11,12,12,13,13,14,14,15,15,16,16],"right_children":[2,-1,4,6,8,10,12,14,16,18,20,22,24,26,28,30,32,-1,-1,-1,-1,-1,-1,-1,-1,-1,-1,-1,-1,-1,-1,-1,-1],"split_conditions":[1E0,1.0231973E-1,1E0,3.5238924E0,-8.36486E-1,1E0,-1.4246681E-1,1E0,1.677691E0,1E0,0E0,-2.038149E0,1E0,1E0,1E0,-4.3580768E-1,-1.3490062E0,-2.3859655E-2,-5.3070515E-2,-9.649756E-2,-3.876056E-2,-3.3534084E-2,-1.0201923E-1,-6.321324E-2,4.2139757E-3,-9.712869E-3,-1.6022469E-1,-7.843853E-3,6.292911E-2,1.4309316E-2,5.204327E-2,-1.0167947E-1,5.4684253E-3],"split_indices":[9,0,74,10,12,41,12,54,10,31,89,8,47,78,86,84,8,0,0,0,0,0,0,0,0,0,0,0,0,0,0,0,0],"split_type":[0,0,0,0,0,0,0,0,0,0,0,0,0,0,0,0,0,0,0,0,0,0,0,0,0,0,0,0,0,0,0,0,0],"sum_hessian":[4.389426E3,1.0961204E3,3.2933054E3,3.088231E3,2.0507452E2,2.827442E3,2.6078906E2,1.0792519E1,1.94282E2,2.692208E3,1.3523389E2,9.992422E1,1.6086484E2,7.290258E0,3.502261E0,1.6883191E2,2.545009E1,2.2356497E3,4.5655832E2,8.452958E1,5.070431E1,1.2581968E1,8.734225E1,1.3171613E2,2.9148708E1,2.9873905E0,4.3028674E0,2.400411E0,1.1018502E0,5.74521E1,1.11379814E2,4.5539155E0,2.0896175E1],"tree_param":{"num_deleted":"0","num_feature":"95","num_nodes":"33","size_leaf_vector":"1"}},{"base_weights":[2.4417322E-2,1.0207564E-1,-2.751984E-1,-3.0543798E-1,2.0489986E-1,-2.4293008E-1,-5.0457245E-1,-4.1587085E-1,2.5883088E-1,-2.157881E-1,-6.9416827E-1,-7.17725E-1,-4.2761248E-1,-2.0323578E-1,-1.741632E-1,4.9162543E-1,1.2375829E-1,-1.7163083E-2,-4.6084646E-2,-7.304531E-2,3.9904203E-2,-1.0930639E-1,-6.292859E-2,5.455367E-2,-4.5203093E-2,-5.3967383E-2,1.0960563E-2,5.4868966E-2,-2.7224941E-2,1.8397206E-2,-9.047367E-2],"categories":[],"categories_nodes":[],"categories_segments":[],"categories_sizes":[],"default_left":[0,0,0,0,0,0,0,0,0,0,0,0,0,0,0,0,0,0,0,0,0,0,0,0,0,0,0,0,0,0,0],"id":16,"left_children":[1,-1,3,5,7,9,11,13,15,17,19,21,23,25,-1,27,29,-1,-1,-1,-1,-1,-1,-1,-1,-1,-1,-1,-1,-1,-1],"loss_changes":[1.2838774E3,0E0,4.806723E1,3.860208E1,6.687093E0,2.8873398E1,1.1870239E1,4.182583E0,5.6441765E0,2.4124725E1,5.60688E0,5.7998886E0,1.3265579E1,1.6379664E0,0E0,3.0386047E0,7.3596597E0,0E0,0E0,0E0,0E0,0E0,0E0,0E0,0E0,0E0,0E0,0E0,0E0,0E0,0E0],"parents":[2147483647,0,0,2,2,3,3,4,4,5,5,6,6,7,7,8,8,9,9,10,10,11,11,12,12,13,13,15,15,16,16],"right_children":[2,-1,4,6,8,10,12,14,16,18,20,22,24,26,-1,28,30,-1,-1,-1,-1,-1,-1,-1,-1,-1,-1,-1,-1,-1,-1],"split_conditions":[1E0,1.0207564E-1,1E0,1.677691E0,-7.958973E-1,1.4756273E0,-3.4412453E-1,1E0,-2.3588605E-1,1E0,4.9209997E-1,-8.1923556E-1,-2.4992537E-1,0E0,-1.741632E-1,2.2969048E0,7.406873E-1,-1.7163083E-2,-4.6084646E-2,-7.304531E-2,3.9904203E-2,-1.0930639E-1,-6.292859E-2,5.455367E-2,-4.5203093E-2,-5.3967383E-2,1.0960563E-2,5.4868966E-2,-2.7224941E-2,1.8397206E-2,-9.047367E-2],"split_indices":[9,0,74,10,12,94,11,47,94,31,82,12,11,81,0,92,90,0,0,0,0,0,0,0,0,0,0,0,0,0,0],"split_type":[0,0,0,0,0,0,0,0,0,0,0,0,0,0,0,0,0,0,0,0,0,0,0,0,0,0,0,0,0,0,0],"sum_hessian":[4.2988843E3,9.933156E2,3.3055686E3,3.1100427E3,1.9552596E2,2.3687249E3,7.413177E2,1.5092555E1,1.804334E2,2.2357244E3,1.3300066E2,1.9444539E2,5.468723E2,1.4000372E1,1.0921824E0,6.528187E1,1.15151535E2,1.895816E3,3.3990823E2,1.2904921E2,3.9514575E0,3.491316E1,1.5953223E2,1.2863951E1,5.3400836E2,6.3964195E0,7.603953E0,6.100618E1,4.2756834E0,1.095585E2,5.5930343E0],"tree_param":{"num_deleted":"0","num_feature":"95","num_nodes":"31","size_leaf_vector":"1"}},{"base_weights":[3.5949897E-2,1.0185402E-1,-2.3230363E-1,-2.0298782E-1,-5.757487E-1,-6.6822904E-1,-1.8124475E-1,-8.209449E-1,-4.2229128E-1,-5.373244E-1,-1.6528636E0,-1.6015637E-1,-5.81424E-1,-2.532329E-1,-8.8958555E-1,-8.15863E-1,-3.2517165E-1,-6.0356468E-2,5.439341E-2,-1.7207772E-1,-5.562217E-2,-1.3717391E-2,-5.3299356E-2,-6.48791E-2,4.1517608E-2,4.9297567E-2,-7.1932666E-2,-9.119605E-2,4.050651E-2,-4.0007222E-2,-1.197343E-1,-4.3842386E-2,1.903798E-2],"categories":[],"categories_nodes":[],"categories_segments":[],"categories_sizes":[],"default_left":[0,0,0,0,0,0,0,0,0,0,0,0,0,0,0,0,0,0,0,0,0,0,0,0,0,0,0,0,0,0,0,0,0],"id":17,"left_children":[1,-1,3,5,7,9,11,13,15,17,19,21,23,25,27,29,31,-1,-1,-1,-1,-1,-1,-1,-1,-1,-1,-1,-1,-1,-1,-1,-1],"loss_changes":[1.108869E3,0E0,3.3157166E1,3.0696037E1,9.412407E0,1.6595802E1,2.4479912E1,3.62397E0,5.9109726E0,9.009754E0,1.9249725E-1,2.364009E1,1.0030029E1,4.5466337E0,2.9106522E0,4.488579E0,7.747652E0,0E0,0E0,0E0,0E0,0E0,0E0,0E0,0E0,0E0,0E0,0E0,0E0,0E0,0E0,0E0,0E0],"parents":[2147483647,0,0,2,2,3,3,4,4,5,5,6,6,7,7,8,8,9,9,10,10,11,11,12,12,13,13,14,14,15,15,16,16],"right_children":[2,-1,4,6,8,10,12,14,16,18,20,22,24,26,28,30,32,-1,-1,-1,-1,-1,-1,-1,-1,-1,-1,-1,-1,-1,-1,-1,-1],"split_conditions":[1E0,1.0185402E-1,3.5238924E0,-8.423331E-1,-1.4246681E-1,1E0,1E0,-2.038149E0,-5.4784883E-2,1E0,1.0085884E0,1E0,8.081234E-1,-6.3408417E-1,1.8491709E0,9.460859E-1,1E0,-6.0356468E-2,5.439341E-2,-1.7207772E-1,-5.562217E-2,-1.3717391E-2,-5.3299356E-2,-6.48791E-2,4.1517608E-2,4.9297567E-2,-7.1932666E-2,-9.119605E-2,4.050651E-2,-4.0007222E-2,-1.197343E-1,-4.3842386E-2,1.903798E-2],"split_indices":[9,0,10,12,12,47,41,8,82,39,8,32,84,12,80,12,47,0,0,0,0,0,0,0,0,0,0,0,0,0,0,0,0],"split_type":[0,0,0,0,0,0,0,0,0,0,0,0,0,0,0,0,0,0,0,0,0,0,0,0,0,0,0,0,0,0,0,0,0],"sum_hessian":[4.205004E3,9.0119714E2,3.3038066E3,3.0454443E3,2.5836234E2,1.346467E2,2.9107976E3,9.7779434E1,1.6058289E2,1.2021071E2,1.4435993E1,2.7664153E3,1.4438242E2,1.1052861E1,8.672658E1,3.0318459E1,1.3026443E2,1.13687744E2,6.522964E0,1.3058184E1,1.377809E0,2.6070774E3,1.5933781E2,1.3556749E2,8.814924E0,4.2273183E0,6.8255424E0,8.554375E1,1.1828263E0,1.548713E1,1.4831328E1,1.0692549E2,2.3338938E1],"tree_param":{"num_deleted":"0","num_feature":"95","num_nodes":"33","size_leaf_vector":"1"}},{"base_weights":[2.427812E-2,1.0165226E-1,-2.2156064E-1,-2.5195655E-1,2.5341213E-1,-2.1378756E-1,-4.5755017E-1,3.553314E-1,-3.6594096E-1,-1.6145469E-1,-3.7364927E-1,-7.135537E-1,-3.4382847E-1,4.6014988E-1,6.287877E-2,-6.038864E-1,5.2737015E-1,-8.864935E-2,-1.4604582E-2,-7.756506E-2,-3.3767983E-2,-6.620266E-2,-1.2516323E-1,-2.9088331E-2,-6.506038E-2,6.021722E-5,5.61152E-2,-3.8499508E-2,3.5582896E-2,-2.9851511E-2,-1.3439706E-1,8.18827E-2,1.585467E-2],"categories":[],"categories_nodes":[],"categories_segments":[],"categories_sizes":[],"default_left":[0,0,0,0,0,0,0,0,0,0,0,0,0,0,0,0,0,0,0,0,0,0,0,0,0,0,0,0,0,0,0,0,0],"id":18,"left_children":[1,-1,3,5,7,9,11,13,15,17,19,21,23,25,27,29,31,-1,-1,-1,-1,-1,-1,-1,-1,-1,-1,-1,-1,-1,-1,-1,-1],"loss_changes":[1.0056537E3,0E0,4.776654E1,2.4275208E1,1.2706201E1,2.1870865E1,1.3887802E1,5.2309017E0,6.40718E0,2.1954243E1,9.075623E0,3.2855453E0,5.3017197E0,5.855158E0,6.228865E0,4.816222E0,5.752317E-1,0E0,0E0,0E0,0E0,0E0,0E0,0E0,0E0,0E0,0E0,0E0,0E0,0E0,0E0,0E0,0E0],"parents":[2147483647,0,0,2,2,3,3,4,4,5,5,6,6,7,7,8,8,9,9,10,10,11,11,12,12,13,13,14,14,15,15,16,16],"right_children":[2,-1,4,6,8,10,12,14,16,18,20,22,24,26,28,30,32,-1,-1,-1,-1,-1,-1,-1,-1,-1,-1,-1,-1,-1,-1,-1,-1],"split_conditions":[1E0,1.0165226E-1,1E0,1.0319016E0,1.677691E0,1.677691E0,8.9371026E-2,5.960996E-1,1.1255606E0,-7.486268E-1,-7.551381E-1,3.621561E-2,1E0,-6.4097434E-1,3.2890135E-1,3.435943E-1,0E0,-8.864935E-2,-1.4604582E-2,-7.756506E-2,-3.3767983E-2,-6.620266E-2,-1.2516323E-1,-2.9088331E-2,-6.506038E-2,6.021722E-5,5.61152E-2,-3.8499508E-2,3.5582896E-2,-2.9851511E-2,-1.3439706E-1,8.18827E-2,1.585467E-2],"split_indices":[9,0,74,94,10,10,12,94,12,11,12,12,31,12,12,12,88,0,0,0,0,0,0,0,0,0,0,0,0,0,0,0,0],"split_type":[0,0,0,0,0,0,0,0,0,0,0,0,0,0,0,0,0,0,0,0,0,0,0,0,0,0,0,0,0,0,0,0,0],"sum_hessian":[4.1207554E3,8.1761127E2,3.303144E3,3.1049143E3,1.9822958E2,2.6204592E3,4.844552E2,1.7058484E2,2.7644747E1,1.975698E3,6.4476117E2,1.4738844E2,3.3706674E2,1.2515455E2,4.5430286E1,2.2085869E1,5.558879E0,3.9938236E1,1.9357598E3,5.1263733E1,5.9349744E2,1.3654323E2,1.0845218E1,2.891173E2,4.794945E1,2.27321E1,1.0242245E2,1.7840628E1,2.7589659E1,1.6628159E1,5.4577093E0,2.4235787E0,3.1353002E0],"tree_param":{"num_deleted":"0","num_feature":"95","num_nodes":"33","size_leaf_vector":"1"}},{"base_weights":[2.1128116E-2,1.0146759E-1,-2.021461E-1,-2.2948994E-1,2.345039E-1,-3.4821957E-2,-2.728355E-1,-1.1946773E-1,3.08141E-1,-1.0819136E-1,2.9803392E-1,-2.9154038E-1,1.6943596E-1,-3.9970708E-1,4.3334997E-1,4.0422034E-1,-9.7958975E-2,1.678033E-2,-2.0298949E-2,3.3744447E-2,-1.16315484E-1,-2.7285675E-2,-7.017046E-2,4.5791876E-2,-1.048304E-2,-5.166738E-2,7.0635E-2,-8.06182E-2,6.358084E-2,7.036264E-2,2.1015504E-2,-7.74569E-2,1.648342E-2],"categories":[],"categories_nodes":[],"categories_segments":[],"categories_sizes":[],"default_left":[0,0,0,0,0,0,0,0,0,0,0,0,0,0,0,0,0,0,0,0,0,0,0,0,0,0,0,0,0,0,0,0,0],"id":19,"left_children":[1,-1,3,5,7,9,11,13,15,17,19,21,23,25,27,29,31,-1,-1,-1,-1,-1,-1,-1,-1,-1,-1,-1,-1,-1,-1,-1,-1],"loss_changes":[8.958549E2,0E0,3.942473E1,2.6179184E1,5.1148853E0,1.3863722E1,2.1047775E1,5.482357E0,6.3429327E0,1.2195164E1,6.298498E0,1.8473938E1,8.247169E0,3.3743725E0,3.5260744E0,7.4543056E0,5.7666006E0,0E0,0E0,0E0,0E0,0E0,0E0,0E0,0E0,0E0,0E0,0E0,0E0,0E0,0E0,0E0,0E0],"parents":[2147483647,0,0,2,2,3,3,4,4,5,5,6,6,7,7,8,8,9,9,10,10,11,11,12,12,13,13,14,14,15,15,16,16],"right_children":[2,-1,4,6,8,10,12,14,16,18,20,22,24,26,28,30,32,-1,-1,-1,-1,-1,-1,-1,-1,-1,-1,-1,-1,-1,-1,-1,-1],"split_conditions":[1E0,1.0146759E-1,1E0,-7.6677215E-1,-6.2672204E-1,5.733402E-1,2.8254E0,1E0,8.6550444E-1,-3.1413563E-2,4.410724E0,1E0,1.1586803E0,3.734025E-1,-4.3524423E-1,-3.0719328E-1,1.2920624E0,1.678033E-2,-2.0298949E-2,3.3744447E-2,-1.16315484E-1,-2.7285675E-2,-7.017046E-2,4.5791876E-2,-1.048304E-2,-5.166738E-2,7.0635E-2,-8.06182E-2,6.358084E-2,7.036264E-2,2.1015504E-2,-7.74569E-2,1.648342E-2],"split_indices":[9,0,74,94,11,8,11,54,94,88,88,41,94,89,88,82,5,0,0,0,0,0,0,0,0,0,0,0,0,0,0,0,0],"split_type":[0,0,0,0,0,0,0,0,0,0,0,0,0,0,0,0,0,0,0,0,0,0,0,0,0,0,0,0,0,0,0,0,0],"sum_hessian":[4.0364846E3,7.400027E2,3.296482E3,3.1026619E3,1.938201E2,5.653662E2,2.5372957E3,3.3269947E1,1.6055016E2,4.6380698E2,1.01559204E2,2.4346677E3,1.02628006E2,2.2261772E1,1.1008175E1,1.2983667E2,3.0713476E1,1.18381546E2,3.4542545E2,9.96408E1,1.9184064E0,2.330189E3,1.0447871E2,4.9691334E1,5.293667E1,2.0614622E1,1.6471502E0,1.126897E0,9.881278E0,5.0027687E1,7.980899E1,8.047148E0,2.2666328E1],"tree_param":{"num_deleted":"0","num_feature":"95","num_nodes":"33","size_leaf_vector":"1"}},{"base_weights":[2.248679E-2,1.01299085E-1,-1.8026994E-1,-1.2872401E-1,-3.6295873E-1,-1.7185709E-1,9.968085E-2,-4.873638E-1,-1.4197606E-1,-1.3304523E-1,-3.9836216E-1,3.2089043E-1,-4.7790274E-2,-5.179793E-1,2.112018E-1,3.7182532E-2,-3.314406E-1,-1.0010708E-2,-4.2612966E-2,-3.225958E-2,-6.629475E-2,4.308657E-2,-3.4373786E-2,-8.710646E-3,8.762682E-2,-4.623439E-2,-7.699077E-2,-7.190133E-2,5.2576482E-2,-3.128188E-4,1.0658395E-1,1.04904965E-1,-3.7994176E-2],"categories":[],"categories_nodes":[],"categories_segments":[],"categories_sizes":[],"default_left":[0,0,0,0,0,0,0,0,0,0,0,0,0,0,0,0,0,0,0,0,0,0,0,0,0,0,0,0,0,0,0,0,0],"id":20,"left_children":[1,-1,3,5,7,9,11,13,15,17,19,21,23,25,27,29,31,-1,-1,-1,-1,-1,-1,-1,-1,-1,-1,-1,-1,-1,-1,-1,-1],"loss_changes":[7.95007E2,0E0,3.0897453E1,2.5281689E1,1.979551E1,1.891349E1,1.3324812E1,9.988106E0,8.8947315E0,1.7752567E1,6.102913E0,1.208593E1,9.001486E0,5.8503647E0,6.2606597E0,5.61763E0,8.920742E0,0E0,0E0,0E0,0E0,0E0,0E0,0E0,0E0,0E0,0E0,0E0,0E0,0E0,0E0,0E0,0E0],"parents":[2147483647,0,0,2,2,3,3,4,4,5,5,6,6,7,7,8,8,9,9,10,10,11,11,12,12,13,13,14,14,15,15,16,16],"right_children":[2,-1,4,6,8,10,12,14,16,18,20,22,24,26,28,30,32,-1,-1,-1,-1,-1,-1,-1,-1,-1,-1,-1,-1,-1,-1,-1,-1],"split_conditions":[1E0,1.01299085E-1,8.179624E-1,1E0,1.0181967E0,1E0,1.8241296E-3,7.8657645E-1,-9.431541E-2,3.5238924E0,-3.3763745E-1,1.677691E0,1E0,1.4756273E0,-7.4389195E-1,8.707126E-1,1.0649735E0,-1.0010708E-2,-4.2612966E-2,-3.225958E-2,-6.629475E-2,4.308657E-2,-3.4373786E-2,-8.710646E-3,8.762682E-2,-4.623439E-2,-7.699077E-2,-7.190133E-2,5.2576482E-2,-3.128188E-4,1.0658395E-1,1.04904965E-1,-3.7994176E-2],"split_indices":[9,0,94,64,12,31,94,82,92,10,12,10,56,94,91,82,12,0,0,0,0,0,0,0,0,0,0,0,0,0,0,0,0],"split_type":[0,0,0,0,0,0,0,0,0,0,0,0,0,0,0,0,0,0,0,0,0,0,0,0,0,0,0,0,0,0,0,0,0],"sum_hessian":[3.9566711E3,6.716315E2,3.2850398E3,2.5634602E3,7.2157965E2,2.1564697E3,4.0699054E2,4.609029E2,2.6067673E2,1.8423658E3,3.1410373E2,1.6232455E2,2.4466599E2,4.4179898E2,1.91039E1,1.3439546E2,1.2628126E2,1.6574371E3,1.8492871E2,2.459057E2,6.819803E1,1.3958012E2,2.2744434E1,2.3554971E2,9.116267E0,3.64204E2,7.759497E1,4.5027547E0,1.4601146E1,1.3028679E2,4.108683E0,3.5859122E0,1.2269535E2],"tree_param":{"num_deleted":"0","num_feature":"95","num_nodes":"33","size_leaf_vector":"1"}},{"base_weights":[1.3661875E-2,1.0114334E-1,-1.7079581E-1,-1.1221434E-1,-2.910202E-1,-8.787599E-2,-4.4654888E-1,-2.589779E-1,-7.802288E-1,-1.13068365E-1,2.1422793E-1,-4.8392907E-1,7.2685933E-1,-7.056509E-1,-2.234703E-1,-9.328105E-1,-3.5305566E-1,-1.46760745E-2,1.5627867E-2,-5.594469E-2,2.9324044E-2,-4.3429513E-2,-1.3955764E-1,2.9885704E-2,9.240025E-2,-9.332355E-2,-2.3551662E-2,-2.3934977E-2,5.8374282E-2,-1.1215102E-1,-2.9460037E-2,-8.521237E-2,1.4143157E-2],"categories":[],"categories_nodes":[],"categories_segments":[],"categories_sizes":[],"default_left":[0,0,0,0,0,0,0,0,0,0,0,0,0,0,0,0,0,0,0,0,0,0,0,0,0,0,0,0,0,0,0,0,0],"id":21,"left_children":[1,-1,3,5,7,9,11,13,15,17,19,21,23,25,27,29,31,-1,-1,-1,-1,-1,-1,-1,-1,-1,-1,-1,-1,-1,-1,-1,-1],"loss_changes":[7.1597644E2,0E0,2.309127E1,1.7937544E1,1.6649933E1,1.5706537E1,6.9164104E0,1.5868706E1,3.9457016E0,1.7289E1,9.880601E0,5.9841576E0,1.474526E-1,7.692234E0,1.215704E1,5.4163284E0,4.7775517E0,0E0,0E0,0E0,0E0,0E0,0E0,0E0,0E0,0E0,0E0,0E0,0E0,0E0,0E0,0E0,0E0],"parents":[2147483647,0,0,2,2,3,3,4,4,5,5,6,6,7,7,8,8,9,9,10,10,11,11,12,12,13,13,14,14,15,15,16,16],"right_children":[2,-1,4,6,8,10,12,14,16,18,20,22,24,26,28,30,32,-1,-1,-1,-1,-1,-1,-1,-1,-1,-1,-1,-1,-1,-1,-1,-1],"split_conditions":[1E0,1.0114334E-1,5.0101554E-1,1E0,1E0,1E0,1E0,-6.2672204E-1,-2.0762068E-1,1E0,-4.3580768E-1,1E0,0E0,1E0,1E0,-8.502842E-1,8.6550444E-1,-1.46760745E-2,1.5627867E-2,-5.594469E-2,2.9324044E-2,-4.3429513E-2,-1.3955764E-1,2.9885704E-2,9.240025E-2,-9.332355E-2,-2.3551662E-2,-2.3934977E-2,5.8374282E-2,-1.1215102E-1,-2.9460037E-2,-8.521237E-2,1.4143157E-2],"split_indices":[9,0,94,16,58,54,26,11,90,64,84,67,92,66,56,8,94,0,0,0,0,0,0,0,0,0,0,0,0,0,0,0,0],"split_type":[0,0,0,0,0,0,0,0,0,0,0,0,0,0,0,0,0,0,0,0,0,0,0,0,0,0,0,0,0,0,0,0,0],"sum_hessian":[3.888252E3,6.0596625E2,3.2822856E3,2.2082234E3,1.0740624E3,2.0595579E3,1.4866554E2,1.0094731E3,6.458934E1,1.9016088E3,1.5794894E2,1.446453E2,4.0202456E0,7.294742E1,9.365257E2,4.6718357E1,1.7870989E1,1.6905896E3,2.1101924E2,1.40725765E1,1.4387636E2,1.3857697E2,6.0683336E0,2.061223E0,1.9590226E0,4.8489426E1,2.4457994E1,9.191477E2,1.7377956E1,3.5472828E1,1.1245526E1,8.534341E0,9.336647E0],"tree_param":{"num_deleted":"0","num_feature":"95","num_nodes":"33","size_leaf_vector":"1"}},{"base_weights":[1.935811E-2,1.0100068E-1,-1.4687395E-1,-1.6825394E-1,1.9591725E-1,-6.066124E-1,-1.5175435E-1,2.531218E-1,-3.4429803E-1,-4.6538964E-1,-1.0194312E0,-1.4131938E-1,-7.790243E-1,2.9395324E-1,-6.198551E-1,-1.0765231E-1,-1.0461812E0,-3.7245516E-2,-1.21421695E-1,-1.1313172E-1,-1.6688868E-2,-8.457254E-3,-2.589613E-2,-1.0196584E-1,-2.4723995E-2,3.378274E-2,-4.8981123E-2,-1.1578377E-1,7.12805E-2,1.9123547E-2,-8.5291706E-2,-1.4238258E-1,1.11437095E-2],"categories":[],"categories_nodes":[],"categories_segments":[],"categories_sizes":[],"default_left":[0,0,0,0,0,0,0,0,0,0,0,0,0,0,0,0,0,0,0,0,0,0,0,0,0,0,0,0,0,0,0,0,0],"id":22,"left_children":[1,-1,3,5,7,9,11,13,15,17,19,21,23,25,27,29,31,-1,-1,-1,-1,-1,-1,-1,-1,-1,-1,-1,-1,-1,-1,-1,-1],"loss_changes":[6.315972E2,0E0,2.4103592E1,2.227208E1,6.0600977E0,6.0451164E0,1.9403786E1,6.43258E0,3.031764E0,5.4744854E0,2.45006E0,1.9562801E1,5.9620895E0,5.9491653E0,6.6733437E0,3.5650227E0,2.195281E0,0E0,0E0,0E0,0E0,0E0,0E0,0E0,0E0,0E0,0E0,0E0,0E0,0E0,0E0,0E0,0E0],"parents":[2147483647,0,0,2,2,3,3,4,4,5,5,6,6,7,7,8,8,9,9,10,10,11,11,12,12,13,13,14,14,15,15,16,16],"right_children":[2,-1,4,6,8,10,12,14,16,18,20,22,24,26,28,30,32,-1,-1,-1,-1,-1,-1,-1,-1,-1,-1,-1,-1,-1,-1,-1,-1],"split_conditions":[1E0,1.0100068E-1,1E0,-8.5019606E-1,1E0,6.521351E-2,7.216295E0,1E0,8.0955744E-1,1E0,1.2220697E0,5.485576E-1,6.652949E-1,1.0061002E0,1.0848199E-1,7.2287834E-1,1.94017E-1,-3.7245516E-2,-1.21421695E-1,-1.1313172E-1,-1.6688868E-2,-8.457254E-3,-2.589613E-2,-1.0196584E-1,-2.4723995E-2,3.378274E-2,-4.8981123E-2,-1.1578377E-1,7.12805E-2,1.9123547E-2,-8.5291706E-2,-1.4238258E-1,1.11437095E-2],"split_indices":[9,0,74,12,31,94,10,32,81,47,94,94,12,6,90,94,12,0,0,0,0,0,0,0,0,0,0,0,0,0,0,0,0],"split_type":[0,0,0,0,0,0,0,0,0,0,0,0,0,0,0,0,0,0,0,0,0,0,0,0,0,0,0,0,0,0,0,0,0],"sum_hessian":[3.8334556E3,5.500994E2,3.283356E3,3.091074E3,1.92282E2,1.1082873E2,2.9802454E3,1.7435104E2,1.793096E1,8.416407E1,2.6664658E1,2.9326838E3,4.756148E1,1.671942E2,7.1568418E0,1.4272308E1,3.6586504E0,7.6204025E1,7.9600453E0,2.3282162E1,3.382495E0,1.9795356E3,9.5314825E2,3.211288E1,1.54486E1,1.5886983E2,8.324365E0,5.192044E0,1.9647976E0,1.0717474E1,3.5548344E0,2.5852988E0,1.0733516E0],"tree_param":{"num_deleted":"0","num_feature":"95","num_nodes":"33","size_leaf_vector":"1"}},{"base_weights":[2.0745164E-2,1.008689E-1,-1.2953395E-1,-1.5077488E-1,2.1748023E-1,-2.5384602E-1,-9.30418E-2,-4.349393E-1,2.6112077E-1,-2.6644817E-1,6.837815E-1,-1.1134949E-1,3.7546736E-1,1.7852975E-1,-8.814789E-1,2.9398152E-1,-4.2872104E-1,-4.186328E-2,-1.9288598E-2,1.3429488E-2,9.7771734E-2,-8.506379E-3,-4.4495802E-2,2.1219997E-2,1.0405599E-1,3.624759E-2,-3.3674765E-2,-1.1202314E-1,2.2295192E-2,3.135481E-2,-9.904623E-2,2.7792472E-2,-1.1246536E-1],"categories":[],"categories_nodes":[],"categories_segments":[],"categories_sizes":[],"default_left":[0,0,0,0,0,0,0,0,0,0,0,0,0,0,0,0,0,0,0,0,0,0,0,0,0,0,0,0,0,0,0,0,0],"id":23,"left_children":[1,-1,3,5,7,9,11,13,15,17,19,21,23,25,27,29,31,-1,-1,-1,-1,-1,-1,-1,-1,-1,-1,-1,-1,-1,-1,-1,-1],"loss_changes":[5.640469E2,0E0,2.4339508E1,1.8471107E1,5.54084E0,1.3360634E1,1.7142818E1,3.533998E0,4.1903543E0,1.2247452E1,2.3029785E0,1.679485E1,7.945815E0,6.9304985E-1,2.1752172E0,4.62658E0,4.52172E0,0E0,0E0,0E0,0E0,0E0,0E0,0E0,0E0,0E0,0E0,0E0,0E0,0E0,0E0,0E0,0E0],"parents":[2147483647,0,0,2,2,3,3,4,4,5,5,6,6,7,7,8,8,9,9,10,10,11,11,12,12,13,13,14,14,15,15,16,16],"right_children":[2,-1,4,6,8,10,12,14,16,18,20,22,24,26,28,30,32,-1,-1,-1,-1,-1,-1,-1,-1,-1,-1,-1,-1,-1,-1,-1,-1],"split_conditions":[1E0,1.008689E-1,1E0,-3.3498544E-1,-8.36486E-1,1E0,1E0,1E0,1E0,-6.2359244E-1,-3.463859E-1,1E0,3.7241712E-1,-1.7020887E-1,0E0,7.216295E0,1.6793072E-1,-4.186328E-2,-1.9288598E-2,1.3429488E-2,9.7771734E-2,-8.506379E-3,-4.4495802E-2,2.1219997E-2,1.0405599E-1,3.624759E-2,-3.3674765E-2,-1.1202314E-1,2.2295192E-2,3.135481E-2,-9.904623E-2,2.7792472E-2,-1.1246536E-1],"split_indices":[9,0,74,89,12,56,26,78,32,8,87,16,88,8,81,10,12,0,0,0,0,0,0,0,0,0,0,0,0,0,0,0,0],"split_type":[0,0,0,0,0,0,0,0,0,0,0,0,0,0,0,0,0,0,0,0,0,0,0,0,0,0,0,0,0,0,0,0,0],"sum_hessian":[3.7972517E3,5.0059537E2,3.2966562E3,3.107038E3,1.896181E2,1.1142916E3,1.9927466E3,1.1326236E1,1.7829187E2,1.10022E3,1.4071656E1,1.9185392E3,7.420746E1,5.024132E0,6.3021045E0,1.7073282E2,7.559049E0,3.5699075E2,7.432292E2,5.4117537E0,8.659903E0,1.7795775E3,1.389616E2,6.064045E1,1.3567007E1,3.9209535E0,1.103178E0,5.1701345E0,1.1319702E0,1.6891553E2,1.8172892E0,4.048684E0,3.5103652E0],"tree_param":{"num_deleted":"0","num_feature":"95","num_nodes":"33","size_leaf_vector":"1"}},{"base_weights":[2.637201E-2,1.0074516E-1,-1.0938925E-1,-1.3079534E-1,2.543463E-1,-1.7728733E-1,-1.2392119E-2,3.411657E-1,-1.5087879E-1,-1.7025705E-1,-8.995537E-1,-2.5868717E-1,1.0028729E-1,3.813352E-1,-4.5600387E-1,5.3201213E-2,-1.6399819E0,-1.9442124E-2,5.438927E-3,-1.0437757E-1,2.1481222E-2,4.762052E-2,-3.1233294E-2,-9.4552146E-4,5.443226E-2,4.2049166E-2,-2.8528279E-2,-1.2327784E-1,2.4995439E-2,6.845411E-2,-1.9066233E-2,-2.4268734E-1,-1.43142985E-2],"categories":[],"categories_nodes":[],"categories_segments":[],"categories_sizes":[],"default_left":[0,0,0,0,0,0,0,0,0,0,0,0,0,0,0,0,0,0,0,0,0,0,0,0,0,0,0,0,0,0,0,0,0],"id":24,"left_children":[1,-1,3,5,7,9,11,13,15,17,19,21,23,25,27,29,31,-1,-1,-1,-1,-1,-1,-1,-1,-1,-1,-1,-1,-1,-1,-1,-1],"loss_changes":[4.97006E2,0E0,2.55568E1,1.7043602E1,6.4732704E0,1.1136627E1,2.428536E1,4.997444E0,1.0085666E1,1.1970379E1,3.6313324E0,1.0977087E1,2.9265944E1,3.8774395E0,4.520555E0,4.7345285E0,4.3604326E0,0E0,0E0,0E0,0E0,0E0,0E0,0E0,0E0,0E0,0E0,0E0,0E0,0E0,0E0,0E0,0E0],"parents":[2147483647,0,0,2,2,3,3,4,4,5,5,6,6,7,7,8,8,9,9,10,10,11,11,12,12,13,13,14,14,15,15,16,16],"right_children":[2,-1,4,6,8,10,12,14,16,18,20,22,24,26,28,30,32,-1,-1,-1,-1,-1,-1,-1,-1,-1,-1,-1,-1,-1,-1,-1,-1],"split_conditions":[1E0,1.0074516E-1,1E0,1E0,1E0,4.5192714E0,-3.7636065E-1,1E0,1.4998314E0,1.0810529E0,8.599583E0,-1.711713E0,5.733402E-1,1E0,-3.6567202E-1,0E0,-6.510702E-2,-1.9442124E-2,5.438927E-3,-1.0437757E-1,2.1481222E-2,4.762052E-2,-3.1233294E-2,-9.4552146E-4,5.443226E-2,4.2049166E-2,-2.8528279E-2,-1.2327784E-1,2.4995439E-2,6.845411E-2,-1.9066233E-2,-2.4268734E-1,-1.43142985E-2],"split_indices":[9,0,74,18,66,87,12,32,92,82,85,8,8,67,90,80,83,0,0,0,0,0,0,0,0,0,0,0,0,0,0,0,0],"split_type":[0,0,0,0,0,0,0,0,0,0,0,0,0,0,0,0,0,0,0,0,0,0,0,0,0,0,0,0,0,0,0,0,0],"sum_hessian":[3.7296562E3,4.5259012E2,3.277066E3,3.0955322E3,1.815338E2,2.222394E3,8.7313824E2,1.4963303E2,3.1900766E1,2.2021943E3,2.0199604E1,2.7366486E2,5.994734E2,1.4295132E2,6.6816993E0,2.8903803E1,2.9969625E0,1.9884414E3,2.1375294E2,1.7941013E1,2.2585912E0,1.8082071E1,2.555828E2,4.814601E2,1.18013275E2,1.353691E2,7.5822325E0,2.8259852E0,3.8557143E0,7.550138E0,2.1353666E1,1.5570731E0,1.4398893E0],"tree_param":{"num_deleted":"0","num_feature":"95","num_nodes":"33","size_leaf_vector":"1"}},{"base_weights":[2.9124329E-2,1.0062857E-1,-9.291443E-2,-5.152902E-2,-2.3702894E-1,-2.8614487E-2,-4.7158247E-1,-2.1851471E-1,-9.2114395E-1,3.3985708E-2,-1.5331534E-1,-1.5672889E0,-3.5315102E-1,-2.0477122E-1,-1.084914E0,-1.1276039E0,-4.8346195E-1,5.2494025E-3,-4.082402E-2,-1.68173E-2,7.825839E-2,-1.701944E-1,-6.3417844E-2,-9.743902E-2,-2.9208133E-2,-3.4664568E-2,-1.1543818E-2,-1.1541047E-1,-3.6884826E-2,-3.550076E-2,-1.2735544E-1,-8.326336E-2,2.8219426E-3],"categories":[],"categories_nodes":[],"categories_segments":[],"categories_sizes":[],"default_left":[0,0,0,0,0,0,0,0,0,0,0,0,0,0,0,0,0,0,0,0,0,0,0,0,0,0,0,0,0,0,0,0,0],"id":25,"left_children":[1,-1,3,5,7,9,11,13,15,17,19,21,23,25,27,29,31,-1,-1,-1,-1,-1,-1,-1,-1,-1,-1,-1,-1,-1,-1,-1,-1],"loss_changes":[4.396779E2,0E0,1.953766E1,2.4510223E1,9.057682E0,1.8873798E1,1.6541067E1,8.268566E0,1.1673565E0,1.3199612E1,1.1367483E1,4.9866486E-1,4.2746925E0,8.871935E0,1.1444759E-1,9.152689E-1,1.4215105E0,0E0,0E0,0E0,0E0,0E0,0E0,0E0,0E0,0E0,0E0,0E0,0E0,0E0,0E0,0E0,0E0],"parents":[2147483647,0,0,2,2,3,3,4,4,5,5,6,6,7,7,8,8,9,9,10,10,11,11,12,12,13,13,14,14,15,15,16,16],"right_children":[2,-1,4,6,8,10,12,14,16,18,20,22,24,26,28,30,32,-1,-1,-1,-1,-1,-1,-1,-1,-1,-1,-1,-1,-1,-1,-1,-1],"split_conditions":[1E0,1.0062857E-1,1.677691E0,1E0,1.0908698E1,1.2052677E-1,-5.033219E-1,1E0,-4.4223902E-1,1E0,1E0,1.0085884E0,1E0,-2.0586216E-1,1E0,1.2754899E1,1.2754899E1,5.2494025E-3,-4.082402E-2,-1.68173E-2,7.825839E-2,-1.701944E-1,-6.3417844E-2,-9.743902E-2,-2.9208133E-2,-3.4664568E-2,-1.1543818E-2,-1.1541047E-1,-3.6884826E-2,-3.550076E-2,-1.2735544E-1,-8.326336E-2,2.8219426E-3],"split_indices":[9,0,10,32,10,85,12,70,8,41,56,8,86,12,17,10,10,0,0,0,0,0,0,0,0,0,0,0,0,0,0,0,0],"split_type":[0,0,0,0,0,0,0,0,0,0,0,0,0,0,0,0,0,0,0,0,0,0,0,0,0,0,0,0,0,0,0,0,0],"sum_hessian":[3.6851936E3,4.083444E2,3.276849E3,2.546832E3,7.3001715E2,2.4160984E3,1.307336E2,7.1206586E2,1.795126E1,1.6090687E3,8.0702985E2,1.155891E1,1.1917468E2,7.0216394E2,9.901917E0,1.1126463E1,6.824796E0,1.5452761E3,6.3792576E1,7.952257E2,1.180412E1,9.381186E0,2.1777253E0,9.328097E0,1.0984659E2,2.701864E2,4.3197754E2,8.471608E0,1.4303092E0,2.313297E0,8.813166E0,3.683752E0,3.1410441E0],"tree_param":{"num_deleted":"0","num_feature":"95","num_nodes":"33","size_leaf_vector":"1"}},{"base_weights":[1.4182111E-2,1.0052105E-1,-9.883998E-2,-3.204298E-2,-1.8610197E-1,-1.9854551E-2,-5.467813E-1,-2.673023E-1,1.0021504E-2,-3.8454827E-2,2.8228945E-1,-1.0160804E0,-3.051922E-1,-2.4185342E-1,-9.375235E-1,4.798806E-2,-6.307553E-1,1.9001333E-3,-1.4188266E-2,-1.8047506E-2,3.8755275E-2,-4.1213494E-2,-1.1016563E-1,-7.956621E-2,-4.1709724E-4,-2.6030857E-2,6.302332E-2,-1.1424128E-1,-5.314349E-3,2.1505548E-2,-4.202086E-3,2.3135439E-2,-8.9643694E-2],"categories":[],"categories_nodes":[],"categories_segments":[],"categories_sizes":[],"default_left":[0,0,0,0,0,0,0,0,0,0,0,0,0,0,0,0,0,0,0,0,0,0,0,0,0,0,0,0,0,0,0,0,0],"id":26,"left_children":[1,-1,3,5,7,9,11,13,15,17,19,21,23,25,27,29,31,-1,-1,-1,-1,-1,-1,-1,-1,-1,-1,-1,-1,-1,-1,-1,-1],"loss_changes":[4.081811E2,0E0,1.9061718E1,1.162159E1,2.258712E1,1.0195717E1,4.548148E0,1.6879982E1,1.01555605E1,1.0152899E1,5.1951876E0,2.7640533E-1,4.384189E0,1.5737236E1,6.5244904E0,5.9315214E0,5.5559464E0,0E0,0E0,0E0,0E0,0E0,0E0,0E0,0E0,0E0,0E0,0E0,0E0,0E0,0E0,0E0,0E0],"parents":[2147483647,0,0,2,2,3,3,4,4,5,5,6,6,7,7,8,8,9,9,10,10,11,11,12,12,13,13,14,14,15,15,16,16],"right_children":[2,-1,4,6,8,10,12,14,16,18,20,22,24,26,28,30,32,-1,-1,-1,-1,-1,-1,-1,-1,-1,-1,-1,-1,-1,-1,-1,-1],"split_conditions":[1E0,1.0052105E-1,6.521351E-2,7.216295E0,8.455018E-1,1E0,-3.345221E-3,1.1800785E0,3.5238924E0,1.7050178E-1,-6.652453E-1,1E0,1E0,1E0,1E0,9.130465E-1,-7.4389195E-1,1.9001333E-3,-1.4188266E-2,-1.8047506E-2,3.8755275E-2,-4.1213494E-2,-1.1016563E-1,-7.956621E-2,-4.1709724E-4,-2.6030857E-2,6.302332E-2,-1.1424128E-1,-5.314349E-3,2.1505548E-2,-4.202086E-3,2.3135439E-2,-8.9643694E-2],"split_indices":[9,0,94,10,12,74,11,88,10,88,12,71,14,44,18,94,91,0,0,0,0,0,0,0,0,0,0,0,0,0,0,0,0],"split_type":[0,0,0,0,0,0,0,0,0,0,0,0,0,0,0,0,0,0,0,0,0,0,0,0,0,0,0,0,0,0,0,0,0],"sum_hessian":[3.642323E3,3.7205798E2,3.2702651E3,1.8531157E3,1.4171494E3,1.8112656E3,4.1850174E1,1.00195184E3,4.1519757E2,1.7070507E3,1.0421496E2,1.3132945E1,2.8717228E1,9.666097E2,3.5342163E1,3.9284622E2,2.2351357E1,1.0979401E3,6.091106E2,1.9180042E1,8.503491E1,2.3517416E0,1.0781203E1,1.0296835E1,1.8420393E1,9.472651E2,1.9344557E1,2.8457489E1,6.884675E0,1.3705898E2,2.5578725E2,5.2959023E0,1.7055454E1],"tree_param":{"num_deleted":"0","num_feature":"95","num_nodes":"33","size_leaf_vector":"1"}},{"base_weights":[3.742005E-3,1.0041769E-1,-9.955337E-2,-8.100349E-2,-3.6415786E-1,-5.1942676E-2,-2.4013552E-1,-3.8905516E-1,5.0833666E-1,-1.2597902E-2,-2.2356391E-1,5.7896996E-1,-2.6598194E-1,-4.2158273E-1,3.3748135E-1,-4.3141313E-2,9.974097E-2,8.6080417E-4,-3.595945E-2,-3.8510762E-2,-1.3668223E-2,2.7120208E-2,1.04784206E-1,-2.9773785E-2,3.0714724E-2,-1.6952655E-1,-3.946991E-2,1.06995754E-1,-2.853261E-2,3.6947448E-2,-6.294351E-2],"categories":[],"categories_nodes":[],"categories_segments":[],"categories_sizes":[],"default_left":[0,0,0,0,0,0,0,0,0,0,0,0,0,0,0,0,0,0,0,0,0,0,0,0,0,0,0,0,0,0,0],"id":27,"left_children":[1,-1,3,5,7,9,11,13,15,17,19,21,23,25,27,29,-1,-1,-1,-1,-1,-1,-1,-1,-1,-1,-1,-1,-1,-1,-1],"loss_changes":[3.7328842E2,0E0,1.6041527E1,1.4143082E1,4.8510475E0,1.748309E1,1.0155205E1,5.0775642E0,1.7628962E0,1.5512311E1,6.724859E0,1.846499E0,8.438759E0,6.1904564E0,4.6411333E0,1.1894886E0,0E0,0E0,0E0,0E0,0E0,0E0,0E0,0E0,0E0,0E0,0E0,0E0,0E0,0E0,0E0],"parents":[2147483647,0,0,2,2,3,3,4,4,5,5,6,6,7,7,8,8,9,9,10,10,11,11,12,12,13,13,14,14,15,15],"right_children":[2,-1,4,6,8,10,12,14,16,18,20,22,24,26,28,30,-1,-1,-1,-1,-1,-1,-1,-1,-1,-1,-1,-1,-1,-1,-1],"split_conditions":[1E0,1.0041769E-1,1E0,7.2617364E-1,1E0,9.6851224E-1,-1.711713E0,6.704189E0,0E0,1E0,1.9890592E-1,1.8508115E0,1E0,-3.117202E0,-5.5960166E-1,0E0,9.974097E-2,8.6080417E-4,-3.595945E-2,-3.8510762E-2,-1.3668223E-2,2.7120208E-2,1.04784206E-1,-2.9773785E-2,3.0714724E-2,-1.6952655E-1,-3.946991E-2,1.06995754E-1,-2.853261E-2,3.6947448E-2,-6.294351E-2],"split_indices":[9,0,16,85,26,94,8,11,92,41,11,91,74,8,82,82,0,0,0,0,0,0,0,0,0,0,0,0,0,0,0],"split_type":[0,0,0,0,0,0,0,0,0,0,0,0,0,0,0,0,0,0,0,0,0,0,0,0,0,0,0,0,0,0,0],"sum_hessian":[3.610258E3,3.370589E2,3.2731992E3,3.0599873E3,2.1321187E2,2.5885845E3,4.7140277E2,2.0783522E2,5.3766556E0,2.1066914E3,4.8189307E2,1.3765216E1,4.5763754E2,1.9933078E2,8.504441E0,2.9556541E0,2.4210014E0,1.9862795E3,1.20411964E2,1.6733174E2,3.1456134E2,9.263236E0,4.50198E0,4.3406726E2,2.357027E1,2.8375006E0,1.9649327E2,3.5782025E0,4.9262385E0,1.9518293E0,1.0038248E0],"tree_param":{"num_deleted":"0","num_feature":"95","num_nodes":"31","size_leaf_vector":"1"}},{"base_weights":[1.9192446E-2,1.0031643E-1,-7.19085E-2,-3.782799E-1,-5.372997E-2,-3.0051553E-1,-1.2188101E0,-7.2215095E-2,2.6483572E-1,-1.883532E-1,-6.9613135E-1,-1.3225011E0,1.4204765E-3,-1.2287929E-1,5.9372287E-2,3.3386803E-1,-8.9812696E-2,-1.5274951E-2,-1.1596184E-1,-8.060587E-2,7.8180484E-2,-1.3926409E-1,-4.709662E-2,-1.1134267E-2,-6.2024802E-2,-1.658464E-2,1.4232591E-2,-5.8991514E-4,4.01544E-2,-7.685269E-2,1.1243112E-2],"categories":[],"categories_nodes":[],"categories_segments":[],"categories_sizes":[],"default_left":[0,0,0,0,0,0,0,0,0,0,0,0,0,0,0,0,0,0,0,0,0,0,0,0,0,0,0,0,0,0,0],"id":28,"left_children":[1,-1,3,5,7,9,11,13,15,17,19,21,-1,23,25,27,29,-1,-1,-1,-1,-1,-1,-1,-1,-1,-1,-1,-1,-1,-1],"loss_changes":[3.2188757E2,0E0,1.8284952E1,1.165609E1,1.8296783E1,7.398246E0,1.9683704E0,1.9570255E1,4.2027426E0,4.441894E0,6.659279E0,1.8484879E-1,0E0,1.2089609E1,1.5276334E1,3.2878017E0,4.0065355E0,0E0,0E0,0E0,0E0,0E0,0E0,0E0,0E0,0E0,0E0,0E0,0E0,0E0,0E0],"parents":[2147483647,0,0,2,2,3,3,4,4,5,5,6,6,7,7,8,8,9,9,10,10,11,11,13,13,14,14,15,15,16,16],"right_children":[2,-1,4,6,8,10,12,14,16,18,20,22,-1,24,26,28,30,-1,-1,-1,-1,-1,-1,-1,-1,-1,-1,-1,-1,-1,-1],"split_conditions":[1E0,1.0031643E-1,-8.1923556E-1,1E0,1E0,6.521351E-2,1.2865584E0,1E0,1.677691E0,5.6358695E-1,1E0,8.6550444E-1,1.4204765E-3,3.2959855E0,-3.7636065E-1,3.3875898E-1,-1.3490062E0,-1.5274951E-2,-1.1596184E-1,-8.060587E-2,7.8180484E-2,-1.3926409E-1,-4.709662E-2,-1.1134267E-2,-6.2024802E-2,-1.658464E-2,1.4232591E-2,-5.8991514E-4,4.01544E-2,-7.685269E-2,1.1243112E-2],"split_indices":[9,0,12,47,74,94,84,18,10,1,54,94,0,84,12,5,8,0,0,0,0,0,0,0,0,0,0,0,0,0,0],"split_type":[0,0,0,0,0,0,0,0,0,0,0,0,0,0,0,0,0,0,0,0,0,0,0,0,0,0,0,0,0,0,0],"sum_hessian":[3.589057E3,3.032859E2,3.285771E3,1.8293138E2,3.1028398E3,1.686827E2,1.4248692E1,2.9333994E3,1.6944038E2,1.3257268E2,3.6110016E1,1.30764475E1,1.1722444E0,2.1179902E3,8.154092E2,1.418817E2,2.7558687E1,1.2900114E2,3.5715282E0,3.4033264E1,2.0767527E0,1.1494234E1,1.5822133E0,2.0711726E3,4.6817604E1,2.1922232E2,5.961868E2,2.3718056E1,1.18163635E2,5.683916E0,2.1874771E1],"tree_param":{"num_deleted":"0","num_feature":"95","num_nodes":"31","size_leaf_vector":"1"}},{"base_weights":[1.7019082E-2,1.0022204E-1,-6.606215E-2,-2.770675E-2,-2.0558582E-1,-6.4315766E-2,1.3040522E-1,-2.571767E-1,1.8234505E-1,-4.65274E-2,-3.7682024E-1,2.0608462E-1,-1.3953619E-1,-2.1476497E-1,-5.608975E-1,8.1712484E-1,4.66523E-2,-1.5390961E-2,2.1757658E-3,-4.1715395E-2,4.1091233E-2,1.5573715E-2,4.91168E-2,-2.179048E-2,4.570749E-2,-1.9969702E-2,-1.0320654E-1,-6.953685E-2,9.5111085E-3,9.826596E-3,1.020458E-1,-2.8318472E-3,8.648668E-2],"categories":[],"categories_nodes":[],"categories_segments":[],"categories_sizes":[],"default_left":[0,0,0,0,0,0,0,0,0,0,0,0,0,0,0,0,0,0,0,0,0,0,0,0,0,0,0,0,0,0,0,0,0],"id":29,"left_children":[1,-1,3,5,7,9,11,13,15,17,19,21,23,25,27,29,31,-1,-1,-1,-1,-1,-1,-1,-1,-1,-1,-1,-1,-1,-1,-1,-1],"loss_changes":[2.9131076E2,0E0,1.7560081E1,1.4917906E1,1.4208944E1,1.1612854E1,9.928624E0,7.9300194E0,7.166647E0,1.45267105E1,3.7469568E0,5.361824E0,5.0887547E0,6.5673637E0,6.766674E0,2.0441093E0,4.316869E0,0E0,0E0,0E0,0E0,0E0,0E0,0E0,0E0,0E0,0E0,0E0,0E0,0E0,0E0,0E0,0E0],"parents":[2147483647,0,0,2,2,3,3,4,4,5,5,6,6,7,7,8,8,9,9,10,10,11,11,12,12,13,13,14,14,15,15,16,16],"right_children":[2,-1,4,6,8,10,12,14,16,18,20,22,24,26,28,30,32,-1,-1,-1,-1,-1,-1,-1,-1,-1,-1,-1,-1,-1,-1,-1,-1],"split_conditions":[1E0,1.0022204E-1,8.179624E-1,3.0256373E-1,3.518041E0,1E0,7.2617364E-1,1.6103297E0,-6.8580586E-1,-3.4385478E-1,1E0,8.0955744E-1,1E0,1.1800785E0,-1.0310303E-1,1.2220697E0,1E0,-1.5390961E-2,2.1757658E-3,-4.1715395E-2,4.1091233E-2,1.5573715E-2,4.91168E-2,-2.179048E-2,4.570749E-2,-1.9969702E-2,-1.0320654E-1,-6.953685E-2,9.5111085E-3,9.826596E-3,1.020458E-1,-2.8318472E-3,8.648668E-2],"split_indices":[9,0,94,89,11,41,85,94,82,8,74,81,66,88,87,94,56,0,0,0,0,0,0,0,0,0,0,0,0,0,0,0,0],"split_type":[0,0,0,0,0,0,0,0,0,0,0,0,0,0,0,0,0,0,0,0,0,0,0,0,0,0,0,0,0,0,0,0,0],"sum_hessian":[3.557196E3,2.7578574E2,3.2814104E3,2.574792E3,7.0661816E2,2.0911934E3,4.835987E2,6.2397314E2,8.2645035E1,1.9796564E3,1.1153703E2,3.778915E2,1.05707184E2,5.490155E2,7.495767E1,1.3670702E1,6.8974335E1,7.6904095E2,1.2106155E3,1.0655178E2,4.9852524E0,3.2248495E2,5.5406544E1,9.39951E1,1.1712083E1,5.4029877E2,8.7167425E0,6.2156597E1,1.2801075E1,3.3412848E0,1.0329417E1,6.406924E1,4.9051E0],"tree_param":{"num_deleted":"0","num_feature":"95","num_nodes":"33","size_leaf_vector":"1"}},{"base_weights":[2.0062283E-2,1.0012801E-1,-5.4824412E-2,-4.513126E-3,-2.3392135E-1,-1.5554411E-2,7.1915317E-1,-2.167269E-1,-8.6463946E-1,4.6038233E-2,-1.34298E-1,7.7603054E-1,-6.555702E-2,-2.0130481E-1,-9.1073877E-1,-8.707015E-3,-1.020141E0,7.037864E-3,-3.0491857E-2,1.3151923E-2,-2.3169216E-2,1.0146918E-1,3.841669E-2,-3.337858E-2,-1.3073295E-2,-9.7933166E-2,-3.876076E-2,-7.819975E-2,6.275492E-2,-1.0924021E-1,-1.0780474E-2],"categories":[],"categories_nodes":[],"categories_segments":[],"categories_sizes":[],"default_left":[0,0,0,0,0,0,0,0,0,0,0,0,0,0,0,0,0,0,0,0,0,0,0,0,0,0,0,0,0,0,0],"id":30,"left_children":[1,-1,3,5,7,9,11,13,15,17,19,21,-1,23,25,27,29,-1,-1,-1,-1,-1,-1,-1,-1,-1,-1,-1,-1,-1,-1],"loss_changes":[2.5941098E2,0E0,2.9556194E1,2.0481312E1,7.6141243E0,1.846882E1,3.5207863E0,7.3261566E0,2.4875774E0,1.4227007E1,2.2358232E1,3.1125412E0,0E0,6.385494E0,1.5751648E-1,2.4057915E0,9.281006E-1,0E0,0E0,0E0,0E0,0E0,0E0,0E0,0E0,0E0,0E0,0E0,0E0,0E0,0E0],"parents":[2147483647,0,0,2,2,3,3,4,4,5,5,6,6,7,7,8,8,9,9,10,10,11,11,13,13,14,14,15,15,16,16],"right_children":[2,-1,4,6,8,10,12,14,16,18,20,22,-1,24,26,28,30,-1,-1,-1,-1,-1,-1,-1,-1,-1,-1,-1,-1,-1,-1],"split_conditions":[1E0,1.0012801E-1,1.677691E0,1E0,1E0,1.2052677E-1,9.7580634E-2,1.0908698E1,-4.4223902E-1,1.4756273E0,-9.807113E-1,2.9113093E-1,-6.555702E-2,-2.7667922E-1,1.8584734E0,-1.3490062E0,1.8241296E-3,7.037864E-3,-3.0491857E-2,1.3151923E-2,-2.3169216E-2,1.0146918E-1,3.841669E-2,-3.337858E-2,-1.3073295E-2,-9.7933166E-2,-3.876076E-2,-7.819975E-2,6.275492E-2,-1.0924021E-1,-1.0780474E-2],"split_indices":[9,0,10,56,49,85,83,10,8,94,94,12,0,12,11,8,94,0,0,0,0,0,0,0,0,0,0,0,0,0,0],"split_type":[0,0,0,0,0,0,0,0,0,0,0,0,0,0,0,0,0,0,0,0,0,0,0,0,0,0,0,0,0,0,0],"sum_hessian":[3.5286072E3,2.4933076E2,3.2792764E3,2.560902E3,7.183744E2,2.5233801E3,3.7521782E1,7.00618E2,1.7756435E1,1.6619396E3,8.614406E2,3.644924E1,1.072539E0,6.8664954E2,1.3968422E1,2.8922908E0,1.4864145E1,1.5548999E3,1.0703971E2,2.3089905E2,6.3054156E2,2.1664972E1,1.4784268E1,2.3735165E2,4.492979E2,1.1578227E1,2.3901947E0,1.2021573E0,1.6901336E0,1.359036E1,1.2737858E0],"tree_param":{"num_deleted":"0","num_feature":"95","num_nodes":"31","size_leaf_vector":"1"}},{"base_weights":[1.5266142E-2,1.0003799E-1,-5.3375814E-2,-3.2866128E-2,-2.9506433E-1,1.2498358E-1,-6.333494E-2,-3.3102965E-1,1.170818E-1,2.7541363E-1,5.2669972E-2,-4.743285E-2,-3.5903922E-1,-1.9145659E-1,-6.284777E-1,-5.4239493E-2,3.179841E-2,1.0341678E-2,-2.4045348E-2,-3.0475042E-3,-3.1191979E-2,-2.0407887E-2,-7.705955E-2,-2.7156774E-2,4.1019004E-2,2.0305445E-2,-6.680141E-2],"categories":[],"categories_nodes":[],"categories_segments":[],"categories_sizes":[],"default_left":[0,0,0,0,0,0,0,0,0,0,0,0,0,0,0,0,0,0,0,0,0,0,0,0,0,0,0],"id":31,"left_children":[1,-1,3,5,7,9,11,13,-1,15,17,19,21,23,25,-1,-1,-1,-1,-1,-1,-1,-1,-1,-1,-1,-1],"loss_changes":[2.3642767E2,0E0,1.619391E1,1.4505129E1,1.3861568E1,5.2943597E0,1.1866947E1,1.0268208E1,0E0,5.680212E0,4.9459634E0,1.0752272E1,8.058252E0,8.389603E0,2.748577E0,0E0,0E0,0E0,0E0,0E0,0E0,0E0,0E0,0E0,0E0,0E0,0E0],"parents":[2147483647,0,0,2,2,3,3,4,4,5,5,6,6,7,7,9,9,10,10,11,11,12,12,13,13,14,14],"right_children":[2,-1,4,6,8,10,12,14,-1,16,18,20,22,24,26,-1,-1,-1,-1,-1,-1,-1,-1,-1,-1,-1,-1],"split_conditions":[1E0,1.0003799E-1,1E0,-9.014746E-1,1E0,0E0,1.1800785E0,6.521351E-2,1.170818E-1,-6.817747E-1,-1.059948E0,1E0,2.4745798E-1,-8.502842E-1,-1.3490062E0,-5.4239493E-2,3.179841E-2,1.0341678E-2,-2.4045348E-2,-3.0475042E-3,-3.1191979E-2,-2.0407887E-2,-7.705955E-2,-2.7156774E-2,4.1019004E-2,2.0305445E-2,-6.680141E-2],"split_indices":[9,0,58,94,93,88,88,94,0,90,94,32,94,8,8,0,0,0,0,0,0,0,0,0,0,0,0],"split_type":[0,0,0,0,0,0,0,0,0,0,0,0,0,0,0,0,0,0,0,0,0,0,0,0,0,0,0],"sum_hessian":[3.4946199E3,2.2675635E2,3.2678635E3,3.0132915E3,2.5457188E2,4.8703064E2,2.526261E3,2.4923119E2,5.3406963E0,1.5720244E2,3.2982822E2,2.3984404E3,1.2782051E2,1.7075201E2,7.847918E1,7.197247E0,1.5000519E2,2.8170535E2,4.8122868E1,2.2549758E3,1.4346452E2,9.394423E1,3.387628E1,1.5117165E2,1.9580359E1,3.3743193E0,7.5104866E1],"tree_param":{"num_deleted":"0","num_feature":"95","num_nodes":"27","size_leaf_vector":"1"}},{"base_weights":[1.8260637E-2,9.9946335E-2,-4.3544553E-2,-2.3098318E-2,-3.1285253E-1,-3.2206503E-1,-8.416321E-3,-4.0473935E-1,1.1699139E-1,-3.8424733E-1,7.061516E-1,2.351018E-1,-2.5427025E-2,-3.3483E-1,-7.534503E-1,2.996741E-1,-9.075061E-1,-2.4824513E-2,-8.4729224E-2,-2.4142956E-2,8.773421E-2,6.911086E-2,9.799077E-3,-1.3307033E-3,-4.681332E-2,-4.883393E-2,-1.4843692E-2,-8.685742E-2,5.124497E-2,-2.6001817E-2,6.3806094E-2,-3.303949E-2,-1.1333912E-1],"categories":[],"categories_nodes":[],"categories_segments":[],"categories_sizes":[],"default_left":[0,0,0,0,0,0,0,0,0,0,0,0,0,0,0,0,0,0,0,0,0,0,0,0,0,0,0,0,0,0,0,0,0],"id":32,"left_children":[1,-1,3,5,7,9,11,13,15,17,19,21,23,25,27,29,31,-1,-1,-1,-1,-1,-1,-1,-1,-1,-1,-1,-1,-1,-1,-1,-1],"loss_changes":[2.109679E2,0E0,1.8014814E1,1.335472E1,9.166182E0,9.377312E0,1.20259E1,4.3902206E0,8.027245E0,8.28797E0,1.5864854E0,1.1784017E1,1.4551245E1,4.5180187E0,4.963339E0,6.968544E0,4.753461E-1,0E0,0E0,0E0,0E0,0E0,0E0,0E0,0E0,0E0,0E0,0E0,0E0,0E0,0E0,0E0,0E0],"parents":[2147483647,0,0,2,2,3,3,4,4,5,5,6,6,7,7,8,8,9,9,10,10,11,11,12,12,13,13,14,14,15,15,16,16],"right_children":[2,-1,4,6,8,10,12,14,16,18,20,22,24,26,28,30,32,-1,-1,-1,-1,-1,-1,-1,-1,-1,-1,-1,-1,-1,-1,-1,-1],"split_conditions":[1E0,9.9946335E-2,3.5238924E0,-8.36486E-1,1E0,1E0,-1.711713E0,4.2970246E-1,4.5673347E-1,6.521351E-2,-4.9569346E-2,-2.3948523E-1,1.6103297E0,2.4156602E-1,1E0,-6.938314E-2,1.9613536E-1,-2.4824513E-2,-8.4729224E-2,-2.4142956E-2,8.773421E-2,6.911086E-2,9.799077E-3,-1.3307033E-3,-4.681332E-2,-4.883393E-2,-1.4843692E-2,-8.685742E-2,5.124497E-2,-2.6001817E-2,6.3806094E-2,-3.303949E-2,-1.1333912E-1],"split_indices":[9,0,10,12,47,39,8,94,80,94,90,80,94,12,37,12,11,0,0,0,0,0,0,0,0,0,0,0,0,0,0,0,0],"split_type":[0,0,0,0,0,0,0,0,0,0,0,0,0,0,0,0,0,0,0,0,0,0,0,0,0,0,0,0,0,0,0,0,0],"sum_hessian":[3.4771084E3,2.0514293E2,3.2719656E3,3.0420916E3,2.2987402E2,1.4142128E2,2.9006702E3,1.894369E2,4.0437126E1,1.33947E2,7.4742684E0,1.885563E2,2.7121138E3,1.5943388E2,3.000302E1,3.49182E1,5.5189276E0,1.0472426E2,2.9222742E1,1.0809036E0,6.393365E0,4.265451E1,1.459018E2,2.6408455E3,7.126852E1,8.654081E1,7.2893074E1,2.7789633E1,2.2133868E0,1.3244076E1,2.1674124E1,2.2452445E0,3.273683E0],"tree_param":{"num_deleted":"0","num_feature":"95","num_nodes":"33","size_leaf_vector":"1"}},{"base_weights":[9.749584E-3,9.985281E-2,-4.638748E-2,-1.0246614E-2,-1.753035E-1,1.6322744E-1,-4.583635E-2,-4.980655E-1,-1.3611263E-1,2.7411884E-1,-1.1273654E-1,-1.9808012E-1,9.130292E-3,-5.922753E-1,1.5870672E-1,-5.791549E-1,-1.0481621E-1,3.0481348E-2,-4.931086E-2,-1.03976406E-1,6.110402E-3,-2.7726978E-2,1.4460153E-2,-1.1954078E-3,6.672005E-2,-6.436252E-2,1.4445721E-2,-3.3001594E-2,8.6820565E-2,3.885549E-2,-6.227353E-2,-9.042879E-3,-1.12396955E-1],"categories":[],"categories_nodes":[],"categories_segments":[],"categories_sizes":[],"default_left":[0,0,0,0,0,0,0,0,0,0,0,0,0,0,0,0,0,0,0,0,0,0,0,0,0,0,0,0,0,0,0,0,0],"id":33,"left_children":[1,-1,3,5,7,9,11,13,15,17,19,21,23,25,27,29,31,-1,-1,-1,-1,-1,-1,-1,-1,-1,-1,-1,-1,-1,-1,-1,-1],"loss_changes":[1.9226015E2,0E0,1.5269848E1,1.581971E1,9.0098915E0,1.337989E1,1.779229E1,4.8785877E0,8.831525E0,7.485222E0,2.0328465E1,1.5344971E1,2.1693779E1,2.6593704E0,3.923671E0,2.0171337E0,8.699413E0,0E0,0E0,0E0,0E0,0E0,0E0,0E0,0E0,0E0,0E0,0E0,0E0,0E0,0E0,0E0,0E0],"parents":[2147483647,0,0,2,2,3,3,4,4,5,5,6,6,7,7,8,8,9,9,10,10,11,11,12,12,13,13,14,14,15,15,16,16],"right_children":[2,-1,4,6,8,10,12,14,16,18,20,22,24,26,28,30,32,-1,-1,-1,-1,-1,-1,-1,-1,-1,-1,-1,-1,-1,-1,-1,-1],"split_conditions":[1E0,9.985281E-2,0E0,1E0,-6.271817E-1,1E0,-4.214525E-1,1.5555544E-1,-7.551381E-1,1E0,-7.251705E-1,9.038104E-1,1E0,1E0,-7.228687E-1,-2.2557733E0,1E0,3.0481348E-2,-4.931086E-2,-1.03976406E-1,6.110402E-3,-2.7726978E-2,1.4460153E-2,-1.1954078E-3,6.672005E-2,-6.436252E-2,1.4445721E-2,-3.3001594E-2,8.6820565E-2,3.885549E-2,-6.227353E-2,-9.042879E-3,-1.12396955E-1],"split_indices":[9,0,10,86,84,47,12,82,12,32,12,84,49,37,84,8,38,0,0,0,0,0,0,0,0,0,0,0,0,0,0,0,0],"split_type":[0,0,0,0,0,0,0,0,0,0,0,0,0,0,0,0,0,0,0,0,0,0,0,0,0,0,0,0,0,0,0,0,0],"sum_hessian":[3.461868E3,1.8508357E2,3.2767842E3,2.5601426E3,7.166418E2,4.3521243E2,2.12493E3,7.632746E1,6.4031433E2,3.1046436E2,1.2474809E2,5.629889E2,1.5619412E3,6.683815E1,9.48931E0,4.1092335E1,5.99222E2,2.9910086E2,1.1363491E1,1.891267E1,1.0583542E2,4.5746503E2,1.0552383E2,1.5144021E3,4.7539146E1,6.2601257E1,4.2368937E0,5.9355783E0,3.553732E0,1.429703E0,3.9662632E1,5.9195404E2,7.2679095E0],"tree_param":{"num_deleted":"0","num_feature":"95","num_nodes":"33","size_leaf_vector":"1"}},{"base_weights":[9.127581E-3,9.976148E-2,-4.248481E-2,-2.6258558E-2,-2.682199E-1,-9.154208E-2,3.2736972E-2,-2.185011E-1,-8.541468E-1,-1.0226602E-1,5.5549276E-1,8.8033825E-2,-1.13523535E-1,-4.2744774E-1,-8.0937535E-2,-1.1477957E0,-4.316508E-1,-1.4303135E-2,6.655425E-3,8.437003E-2,-1.3847658E-2,1.817586E-2,-3.23602E-3,-2.1424191E-2,1.4053325E-3,-5.2806742E-2,4.1182898E-2,4.366173E-2,-2.3228511E-2,-5.133575E-2,-1.4779434E-1,1.346394E-2,-1.00039735E-1],"categories":[],"categories_nodes":[],"categories_segments":[],"categories_sizes":[],"default_left":[0,0,0,0,0,0,0,0,0,0,0,0,0,0,0,0,0,0,0,0,0,0,0,0,0,0,0,0,0,0,0,0,0],"id":34,"left_children":[1,-1,3,5,7,9,11,13,15,17,19,21,23,25,27,29,31,-1,-1,-1,-1,-1,-1,-1,-1,-1,-1,-1,-1,-1,-1,-1,-1],"loss_changes":[1.7384044E2,0E0,1.1855066E1,1.1643714E1,6.13696E0,1.0014079E1,1.2856695E1,5.7553387E0,1.5683813E0,9.730145E0,4.8273454E0,1.3018479E1,5.6080875E0,6.95096E0,9.71255E0,1.1706514E0,2.847785E0,0E0,0E0,0E0,0E0,0E0,0E0,0E0,0E0,0E0,0E0,0E0,0E0,0E0,0E0,0E0,0E0],"parents":[2147483647,0,0,2,2,3,3,4,4,5,5,6,6,7,7,8,8,9,9,10,10,11,11,12,12,13,13,14,14,15,15,16,16],"right_children":[2,-1,4,6,8,10,12,14,16,18,20,22,24,26,28,30,32,-1,-1,-1,-1,-1,-1,-1,-1,-1,-1,-1,-1,-1,-1,-1,-1],"split_conditions":[1E0,9.976148E-2,1E0,-1.4874665E-1,1E0,1E0,1.677691E0,0E0,-6.7409116E-1,8.27235E-1,1.0918019E0,1.2052677E-1,1.4864433E-1,3.734025E-1,-3.4012067E-1,-7.958973E-1,-2.4985078E-1,-1.4303135E-2,6.655425E-3,8.437003E-2,-1.3847658E-2,1.817586E-2,-3.23602E-3,-2.1424191E-2,1.4053325E-3,-5.2806742E-2,4.1182898E-2,4.366173E-2,-2.3228511E-2,-5.133575E-2,-1.4779434E-1,1.346394E-2,-1.00039735E-1],"split_indices":[9,0,16,84,58,56,10,80,12,8,12,85,12,89,84,12,12,0,0,0,0,0,0,0,0,0,0,0,0,0,0,0,0],"split_type":[0,0,0,0,0,0,0,0,0,0,0,0,0,0,0,0,0,0,0,0,0,0,0,0,0,0,0,0,0,0,0,0,0],"sum_hessian":[3.4055903E3,1.6808452E2,3.2375056E3,3.0214358E3,2.1606999E2,1.4340201E3,1.5874156E3,2.00435E2,1.5634989E1,1.4114684E3,2.255171E1,1.1522002E3,4.3521536E2,7.873555E1,1.21699455E2,8.211215E0,7.4237733E0,1.1370546E3,2.744138E2,1.5781745E1,6.769965E0,6.4756885E2,5.046314E2,2.4282918E2,1.9238617E2,7.06377E1,8.097845E0,2.7109558E1,9.45899E1,3.6849163E0,4.526299E0,4.1023803E0,3.321393E0],"tree_param":{"num_deleted":"0","num_feature":"95","num_nodes":"33","size_leaf_vector":"1"}},{"base_weights":[7.155892E-3,9.9663906E-2,-3.942873E-2,-1.3114744E-1,9.863735E-3,-1.419328E-1,9.8336136E-1,-4.1143846E-2,1.2749137E-1,-2.4045667E-1,-4.583648E-2,-5.4521547E-3,1.1186494E0,1.8628255E-2,-1.3502292E-1,2.624505E-1,2.110946E-2,-2.5780102E-2,8.7313585E-2,-2.7930278E-3,-7.607782E-2,1.2570317E-1,8.883063E-3,1.4309215E-2,-4.719379E-3,-2.3184864E-2,-1.3000844E-3,2.9850176E-2,-6.7325585E-2,1.1154639E-2,-2.6510749E-2],"categories":[],"categories_nodes":[],"categories_segments":[],"categories_sizes":[],"default_left":[0,0,0,0,0,0,0,0,0,0,0,0,0,0,0,0,0,0,0,0,0,0,0,0,0,0,0,0,0,0,0],"id":35,"left_children":[1,-1,3,5,7,9,11,13,15,17,19,-1,21,23,25,27,29,-1,-1,-1,-1,-1,-1,-1,-1,-1,-1,-1,-1,-1,-1],"loss_changes":[1.5644281E2,0E0,1.4656202E1,1.3760809E1,1.2660901E1,1.0623114E1,1.6037188E0,8.262745E0,9.157995E0,1.0932213E1,7.2737336E0,0E0,1.2801523E0,7.3823395E0,6.7641745E0,9.688532E0,9.296302E0,0E0,0E0,0E0,0E0,0E0,0E0,0E0,0E0,0E0,0E0,0E0,0E0,0E0,0E0],"parents":[2147483647,0,0,2,2,3,3,4,4,5,5,6,6,7,7,8,8,9,9,10,10,12,12,13,13,14,14,15,15,16,16],"right_children":[2,-1,4,6,8,10,12,14,16,18,20,-1,22,24,26,28,30,-1,-1,-1,-1,-1,-1,-1,-1,-1,-1,-1,-1,-1,-1],"split_conditions":[1E0,9.9663906E-2,-3.7636065E-1,1E0,1E0,-2.3948523E-1,3.3875898E-1,5.960996E-1,-1.8229666E-1,1E0,1E0,-5.4521547E-3,9.6851224E-1,-3.1413563E-2,8.455018E-1,1E0,5.960996E-1,-2.5780102E-2,8.7313585E-2,-2.7930278E-3,-7.607782E-2,1.2570317E-1,8.883063E-3,1.4309215E-2,-4.719379E-3,-2.3184864E-2,-1.3000844E-3,2.9850176E-2,-6.7325585E-2,1.1154639E-2,-2.6510749E-2],"split_indices":[9,0,12,23,18,80,5,94,85,22,68,0,94,88,12,51,94,0,0,0,0,0,0,0,0,0,0,0,0,0,0],"split_type":[0,0,0,0,0,0,0,0,0,0,0,0,0,0,0,0,0,0,0,0,0,0,0,0,0,0,0,0,0,0,0],"sum_hessian":[3.392091E3,1.516013E2,3.2404897E3,1.132179E3,2.1083108E3,1.1221919E3,9.987061E0,1.4710575E3,6.372533E2,5.5335547E2,5.6883636E2,1.2205348E0,8.766525E0,8.9928876E2,5.7176874E2,2.8025137E2,3.5700192E2,5.4562573E2,7.7296944E0,5.559513E2,1.288511E1,7.533565E0,1.2329605E0,3.10668E2,5.886208E2,3.18297E2,2.5347177E2,2.7051004E2,9.741328E0,2.717473E2,8.525463E1],"tree_param":{"num_deleted":"0","num_feature":"95","num_nodes":"31","size_leaf_vector":"1"}},{"base_weights":[1.3337846E-2,9.956549E-2,-2.8821757E-2,-2.3084393E-2,-6.652568E-1,-1.1263885E-1,1.49635235E-2,3.697342E-1,-8.3584154E-1,-1.2606023E-1,7.439714E-1,2.3072427E-2,-5.2797514E-1,1.0411344E-1,-5.658875E-2,-8.995396E-1,2.2219602E-2,-3.0232245E-2,-4.858048E-3,-3.1587187E-2,9.470221E-2,5.3777646E-2,1.5815858E-3,-6.917959E-2,7.911231E-2,-9.867558E-2,-1.0509374E-2],"categories":[],"categories_nodes":[],"categories_segments":[],"categories_sizes":[],"default_left":[0,0,0,0,0,0,0,0,0,0,0,0,0,0,0,0,0,0,0,0,0,0,0,0,0,0,0],"id":36,"left_children":[1,-1,3,5,7,9,11,13,15,17,19,21,23,-1,-1,25,-1,-1,-1,-1,-1,-1,-1,-1,-1,-1,-1],"loss_changes":[1.391455E2,0E0,1.1749285E1,1.0885308E1,5.3848667E0,1.1044972E1,9.885607E0,3.5800807E0,1.8839569E0,1.2804851E1,3.4925146E0,8.2479515E0,7.687728E0,0E0,0E0,1.5431004E0,0E0,0E0,0E0,0E0,0E0,0E0,0E0,0E0,0E0,0E0,0E0],"parents":[2147483647,0,0,2,2,3,3,4,4,5,5,6,6,7,7,8,8,9,9,10,10,11,11,12,12,15,15],"right_children":[2,-1,4,6,8,10,12,14,16,18,20,22,24,-1,-1,26,-1,-1,-1,-1,-1,-1,-1,-1,-1,-1,-1],"split_conditions":[1E0,9.956549E-2,1E0,-4.058242E-1,-4.851201E-1,1E0,3.2959855E0,0E0,1.1908715E0,-8.502842E-1,3.3875898E-1,-2.3039646E0,8.011048E0,1.0411344E-1,-5.658875E-2,1.8584734E0,2.2219602E-2,-3.0232245E-2,-4.858048E-3,-3.1587187E-2,9.470221E-2,5.3777646E-2,1.5815858E-3,-6.917959E-2,7.911231E-2,-9.867558E-2,-1.0509374E-2],"split_indices":[9,0,70,89,85,56,84,10,84,8,5,94,90,0,0,11,0,0,0,0,0,0,0,0,0,0,0],"split_type":[0,0,0,0,0,0,0,0,0,0,0,0,0,0,0,0,0,0,0,0,0,0,0,0,0,0,0],"sum_hessian":[3.3581658E3,1.3726564E2,3.2209001E3,3.1931506E3,2.7749496E1,9.5153503E2,2.2416157E3,3.7612658E0,2.3988232E1,9.3769604E2,1.38389845E1,2.2095728E3,3.2042934E1,2.1241834E0,1.6370825E0,2.276735E1,1.2208817E0,2.8543805E2,6.52258E2,2.1357243E0,1.170326E1,2.970224E1,2.1798704E3,2.8926115E1,3.1168208E0,2.0297026E1,2.470324E0],"tree_param":{"num_deleted":"0","num_feature":"95","num_nodes":"27","size_leaf_vector":"1"}},{"base_weights":[6.601505E-3,9.9468224E-2,-3.1875033E-2,-5.9508006E-3,-1.768469E-1,2.7851839E-2,-1.3007401E-1,-3.1382367E-1,-1.0395593E-1,1.4950546E-2,5.784818E-1,-1.15084246E-1,-8.740973E-1,-1.9655512E-1,-5.511764E-1,-1.7373696E-2,-2.8585154E-1,3.5426412E-3,-2.9629475E-2,7.2574094E-2,2.5705344E-3,-2.705358E-2,-4.037908E-3,-1.030946E-1,-2.2650672E-2,6.1914865E-3,-3.307989E-2,3.9486423E-2,-6.571212E-2,2.6936902E-2,-1.7750274E-2,-5.026261E-2,-1.1246274E-2],"categories":[],"categories_nodes":[],"categories_segments":[],"categories_sizes":[],"default_left":[0,0,0,0,0,0,0,0,0,0,0,0,0,0,0,0,0,0,0,0,0,0,0,0,0,0,0,0,0,0,0,0,0],"id":37,"left_children":[1,-1,3,5,7,9,11,13,15,17,19,21,23,25,27,29,31,-1,-1,-1,-1,-1,-1,-1,-1,-1,-1,-1,-1,-1,-1,-1,-1],"loss_changes":[1.2791594E2,0E0,1.2170822E1,1.1535142E1,4.8722897E0,1.5342517E1,6.462249E0,4.6270123E0,5.068254E0,1.3473632E1,4.0063114E0,6.701195E0,9.3150616E-1,4.0254374E0,5.842661E0,1.0117649E1,3.8456936E0,0E0,0E0,0E0,0E0,0E0,0E0,0E0,0E0,0E0,0E0,0E0,0E0,0E0,0E0,0E0,0E0],"parents":[2147483647,0,0,2,2,3,3,4,4,5,5,6,6,7,7,8,8,9,9,10,10,11,11,12,12,13,13,14,14,15,15,16,16],"right_children":[2,-1,4,6,8,10,12,14,16,18,20,22,24,26,28,30,32,-1,-1,-1,-1,-1,-1,-1,-1,-1,-1,-1,-1,-1,-1,-1,-1],"split_conditions":[1E0,9.9468224E-2,1E0,0E0,-9.431541E-2,1E0,1E0,0E0,-3.3763745E-1,1E0,7.502481E-1,-2.4156655E-1,1E0,-6.173753E-1,-2.0290816E0,1E0,2.0662385E-1,3.5426412E-3,-2.9629475E-2,7.2574094E-2,2.5705344E-3,-2.705358E-2,-4.037908E-3,-1.030946E-1,-2.2650672E-2,6.1914865E-3,-3.307989E-2,3.9486423E-2,-6.571212E-2,2.6936902E-2,-1.7750274E-2,-5.026261E-2,-1.1246274E-2],"split_indices":[9,0,31,10,92,44,24,87,12,37,11,12,18,12,8,60,12,0,0,0,0,0,0,0,0,0,0,0,0,0,0,0,0],"split_type":[0,0,0,0,0,0,0,0,0,0,0,0,0,0,0,0,0,0,0,0,0,0,0,0,0,0,0,0,0,0,0,0,0],"sum_hessian":[3.3627876E3,1.2510966E2,3.237678E3,2.7474187E3,4.9025925E2,2.1599675E3,5.8745123E2,1.6912816E2,3.211311E2,2.1115217E3,4.8445927E1,5.769815E2,1.0469717E1,1.144233E2,5.4704853E1,2.1831076E2,1.0282033E2,1.9820171E3,1.2950458E2,3.8007786E1,1.043814E1,1.8642805E2,3.9055344E2,7.951793E0,2.517924E0,3.9298203E1,7.51251E1,5.2346463E0,4.9470207E1,7.7983574E1,1.403272E2,4.484956E1,5.7970768E1],"tree_param":{"num_deleted":"0","num_feature":"95","num_nodes":"33","size_leaf_vector":"1"}},{"base_weights":[4.1761277E-3,9.936001E-2,-3.0848986E-2,-3.475146E-2,1.0458648E0,-2.113327E-2,-2.99499E-1,-1.4978955E-2,1.1820606E0,-1.5247506E-2,-6.9399625E-1,4.434011E-2,-4.7032934E-1,1.2936519E-1,2.4299672E-2,-2.9203712E-3,2.1888949E-2,-7.663234E-2,5.2293625E-2,-6.6923783E-3,9.2190705E-2,-5.1431634E-2,3.642268E-2],"categories":[],"categories_nodes":[],"categories_segments":[],"categories_sizes":[],"default_left":[0,0,0,0,0,0,0,0,0,0,0,0,0,0,0,0,0,0,0,0,0,0,0],"id":38,"left_children":[1,-1,3,5,7,9,11,-1,13,15,17,19,21,-1,-1,-1,-1,-1,-1,-1,-1,-1,-1],"loss_changes":[1.1567634E2,0E0,1.3582956E1,1.1578808E1,2.0782518E0,1.2096746E1,9.25005E0,0E0,7.957611E-1,9.912894E0,2.7321148E0,5.2432365E0,4.043947E0,0E0,0E0,0E0,0E0,0E0,0E0,0E0,0E0,0E0,0E0],"parents":[2147483647,0,0,2,2,3,3,4,4,5,5,6,6,8,8,9,9,10,10,11,11,12,12],"right_children":[2,-1,4,6,8,10,12,-1,14,16,18,20,22,-1,-1,-1,-1,-1,-1,-1,-1,-1,-1],"split_conditions":[1E0,9.936001E-2,1E0,1E0,1.1679645E-1,1E0,-6.320697E-1,-1.4978955E-2,1E0,1E0,1.0085884E0,-3.9333892E-1,1.5555544E-1,1.2936519E-1,2.4299672E-2,-2.9203712E-3,2.1888949E-2,-7.663234E-2,5.2293625E-2,-6.6923783E-3,9.2190705E-2,-5.1431634E-2,3.642268E-2],"split_indices":[9,0,23,41,6,70,94,0,74,74,8,0,82,0,0,0,0,0,0,0,0,0,0],"split_type":[0,0,0,0,0,0,0,0,0,0,0,0,0,0,0,0,0,0,0,0,0,0,0],"sum_hessian":[3.3360864E3,1.131225E2,3.222964E3,3.212289E3,1.0674998E1,3.0561646E3,1.561244E2,1.0814248E0,9.593574E0,3.030677E3,2.5487713E1,5.206696E1,1.0405745E2,8.237137E0,1.3564366E0,2.8610156E3,1.696613E2,2.4407368E1,1.0803455E0,4.702815E1,5.038809E0,9.9212E1,4.845446E0],"tree_param":{"num_deleted":"0","num_feature":"95","num_nodes":"23","size_leaf_vector":"1"}},{"base_weights":[1.3818556E-2,-5.1438667E-2,8.984572E-2,-9.578173E-1,-4.2180963E-2,1.6757466E-1,-9.033386E-2,4.943932E-2,-1.1260777E0,-2.8880205E-2,-6.3378054E-1,2.5247416E-1,-1.9289838E-2,-3.041889E-1,-2.6205606E-3,7.878564E-3,-1.2233983E0,-3.9206408E-2,5.725817E-1,5.986277E-2,-7.6218987E-1,-5.702918E-2,3.5418108E-1,1.3159876E-1,-1.8635446E-1,-3.555185E-1,5.0685114E-1,-1.7209691E-1,6.58675E-2,-6.509725E-2,-1.4210445E-1,3.1742554E-2,-5.713859E-3,6.884165E-2,1.48031935E-2,-5.3436674E-2,6.861687E-2,-5.0604707E-3,-8.412765E-2,8.857134E-3,-7.353585E-2,5.28286E-2,2.3418209E-2,-7.515933E-2,1.668216E-2,-1.441689E-2,-1.9187675E-1,-6.128497E-2,-1.8065445E-2,-6.656918E-2,8.237823E-2,2.4712272E-2,-2.8329656E-2,-4.2182557E-2,1.1087366E-2],"categories":[],"categories_nodes":[],"categories_segments":[],"categories_sizes":[],"default_left":[0,0,0,0,0,0,0,0,0,0,0,0,0,0,0,0,0,0,0,0,0,0,0,0,0,0,0,0,0,0,0,0,0,0,0,0,0,0,0,0,0,0,0,0,0,0,0,0,0,0,0,0,0,0,0],"id":39,"left_children":[1,3,5,7,9,11,13,-1,15,17,19,21,23,25,27,-1,29,31,33,35,37,39,41,43,45,47,49,51,53,-1,-1,-1,-1,-1,-1,-1,-1,-1,-1,-1,-1,-1,-1,-1,-1,-1,-1,-1,-1,-1,-1,-1,-1,-1,-1],"loss_changes":[1.6490366E1,1.4968645E1,2.1515062E1,4.964548E0,1.3922496E1,1.7024977E1,8.69001E0,0E0,2.027752E0,1.0790544E1,3.5112095E0,2.324345E1,8.496538E0,5.789856E0,3.836624E0,0E0,8.060093E-1,1.0924723E1,1.3403645E0,2.973673E0,1.8091316E0,1.8171959E1,1.1480225E1,5.63708E0,1.140975E1,5.6182766E0,3.6821244E0,4.5045996E0,5.214405E0,0E0,0E0,0E0,0E0,0E0,0E0,0E0,0E0,0E0,0E0,0E0,0E0,0E0,0E0,0E0,0E0,0E0,0E0,0E0,0E0,0E0,0E0,0E0,0E0,0E0,0E0],"parents":[2147483647,0,0,1,1,2,2,3,3,4,4,5,5,6,6,8,8,9,9,10,10,11,11,12,12,13,13,14,14,16,16,17,17,18,18,19,19,20,20,21,21,22,22,23,23,24,24,25,25,26,26,27,27,28,28],"right_children":[2,4,6,8,10,12,14,-1,16,18,20,22,24,26,28,-1,30,32,34,36,38,40,42,44,46,48,50,52,54,-1,-1,-1,-1,-1,-1,-1,-1,-1,-1,-1,-1,-1,-1,-1,-1,-1,-1,-1,-1,-1,-1,-1,-1,-1,-1],"split_conditions":[0E0,-7.486268E-1,0E0,-7.228687E-1,3.5238924E0,1.2052677E-1,1E0,4.943932E-2,1.7981683E0,1E0,-2.3588605E-1,-6.8137246E-1,-6.9545907E-1,1E0,0E0,7.878564E-3,-5.175336E-1,-2.2013671E0,-2.2305715E-1,-1.3846903E-1,8.47876E-1,1E0,2.935125E-2,-2.4443366E-1,4.410724E0,1.217156E-1,-4.9309197E-1,-7.879435E-1,-7.551381E-1,-6.509725E-2,-1.4210445E-1,3.1742554E-2,-5.713859E-3,6.884165E-2,1.48031935E-2,-5.3436674E-2,6.861687E-2,-5.0604707E-3,-8.412765E-2,8.857134E-3,-7.353585E-2,5.28286E-2,2.3418209E-2,-7.515933E-2,1.668216E-2,-1.441689E-2,-1.9187675E-1,-6.128497E-2,-1.8065445E-2,-6.656918E-2,8.237823E-2,2.4712272E-2,-2.8329656E-2,-4.2182557E-2,1.1087366E-2],"split_indices":[82,11,10,84,10,85,66,0,2,56,94,12,94,79,81,0,82,8,82,81,6,47,82,84,88,12,12,85,12,0,0,0,0,0,0,0,0,0,0,0,0,0,0,0,0,0,0,0,0,0,0,0,0,0,0],"split_type":[0,0,0,0,0,0,0,0,0,0,0,0,0,0,0,0,0,0,0,0,0,0,0,0,0,0,0,0,0,0,0,0,0,0,0,0,0,0,0,0,0,0,0,0,0,0,0,0,0,0,0,0,0,0,0],"sum_hessian":[3.3218538E3,1.7877113E3,1.5341423E3,1.7039013E1,1.7706724E3,1.0718286E3,4.6231372E2,1.5679747E0,1.5471038E1,1.7327639E3,3.79084E1,7.367462E2,3.3508237E2,1.3374939E2,3.2856433E2,1.1704856E0,1.4300552E1,1.704436E3,2.8327814E1,6.0048933E0,3.190351E1,1.8233223E2,5.54414E2,1.7617647E2,1.589059E2,1.2631665E2,7.432749E0,9.412805E1,2.3443628E2,4.772368E0,9.528184E0,8.079996E1,1.6236361E3,2.1767279E1,6.560534E0,3.1566796E0,2.8482137E0,3.3551602E0,2.854835E1,1.5082722E2,3.1505E1,2.248214E2,3.2959262E2,5.976671E0,1.701998E2,1.5618587E2,2.7200255E0,5.0093685E1,7.622296E1,1.3473942E0,6.0853543E0,1.9477201E1,7.465085E1,1.9099442E1,2.1533684E2],"tree_param":{"num_deleted":"0","num_feature":"95","num_nodes":"55",